<?xml version="1.0"?>
<opencv_storage>
<cascade>
  <stageType>BOOST</stageType>
  <featureType>HAAR</featureType>
  <height>20</height>
  <width>20</width>
  <stageParams>
    <boostType>GAB</boostType>
    <minHitRate>9.9500000476837158e-01</minHitRate>
    <maxFalseAlarm>5.0000000000000000e-01</maxFalseAlarm>
    <weightTrimRate>9.4999999999999996e-01</weightTrimRate>
    <maxDepth>1</maxDepth>
    <maxWeakCount>100</maxWeakCount></stageParams>
  <featureParams>
    <maxCatCount>0</maxCatCount>
    <featSize>1</featSize>
    <mode>BASIC</mode></featureParams>
  <stageNum>12</stageNum>
  <stages>
    <!-- stage 0 -->
    <_>
      <maxWeakCount>31</maxWeakCount>
      <stageThreshold>-8.5509777069091797e-01</stageThreshold>
      <weakClassifiers>
        <_>
          <internalNodes>
            0 -1 709 -6.3703849446028471e-04</internalNodes>
          <leafValues>
            6.1306965351104736e-01 1.2166558206081390e-01</leafValues></_>
        <_>
          <internalNodes>
            0 -1 377 2.5332630611956120e-03</internalNodes>
          <leafValues>
            -1.4714708924293518e-01 4.4628039002418518e-01</leafValues></_>
        <_>
          <internalNodes>
            0 -1 493 -6.0692690312862396e-03</internalNodes>
          <leafValues>
            3.1846591830253601e-01 -1.9041480123996735e-01</leafValues></_>
        <_>
          <internalNodes>
            0 -1 67 -8.4966502618044615e-04</internalNodes>
          <leafValues>
            3.1841364502906799e-01 -1.9506578147411346e-01</leafValues></_>
        <_>
          <internalNodes>
            0 -1 453 -3.0147761572152376e-03</internalNodes>
          <leafValues>
            2.5006920099258423e-01 -2.2883650660514832e-01</leafValues></_>
        <_>
          <internalNodes>
            0 -1 64 4.3292134068906307e-04</internalNodes>
          <leafValues>
            -1.7078706622123718e-01 3.1914740800857544e-01</leafValues></_>
        <_>
          <internalNodes>
            0 -1 626 2.8881593607366085e-03</internalNodes>
          <leafValues>
            -1.1417437344789505e-01 4.3476858735084534e-01</leafValues></_>
        <_>
          <internalNodes>
            0 -1 480 2.0078914240002632e-03</internalNodes>
          <leafValues>
            -1.2415646761655807e-01 4.1250839829444885e-01</leafValues></_>
        <_>
          <internalNodes>
            0 -1 151 -3.5723294131457806e-03</internalNodes>
          <leafValues>
            4.3124905228614807e-01 -1.2695750594139099e-01</leafValues></_>
        <_>
          <internalNodes>
            0 -1 796 -2.2132415324449539e-03</internalNodes>
          <leafValues>
            4.3862113356590271e-01 -1.0671050846576691e-01</leafValues></_>
        <_>
          <internalNodes>
            0 -1 743 -4.5831984607502818e-04</internalNodes>
          <leafValues>
            3.2723033428192139e-01 -1.4905530214309692e-01</leafValues></_>
        <_>
          <internalNodes>
            0 -1 433 4.6891465899534523e-04</internalNodes>
          <leafValues>
            -1.1653464287519455e-01 3.4839609265327454e-01</leafValues></_>
        <_>
          <internalNodes>
            0 -1 414 -9.2196819605305791e-04</internalNodes>
          <leafValues>
            2.3474104702472687e-01 -1.8736018240451813e-01</leafValues></_>
        <_>
          <internalNodes>
            0 -1 191 -8.0564821837469935e-04</internalNodes>
          <leafValues>
            3.0463215708732605e-01 -1.4586448669433594e-01</leafValues></_>
        <_>
          <internalNodes>
            0 -1 512 -3.9693439612165093e-04</internalNodes>
          <leafValues>
            2.3573258519172668e-01 -1.7780604958534241e-01</leafValues></_>
        <_>
          <internalNodes>
            0 -1 145 1.2682974338531494e-03</internalNodes>
          <leafValues>
            -8.9081816375255585e-02 3.6823406815528870e-01</leafValues></_>
        <_>
          <internalNodes>
            0 -1 646 1.7499271780252457e-02</internalNodes>
          <leafValues>
            -1.3862070441246033e-01 2.5763499736785889e-01</leafValues></_>
        <_>
          <internalNodes>
            0 -1 335 6.3071809709072113e-03</internalNodes>
          <leafValues>
            -9.1477170586585999e-02 4.0957051515579224e-01</leafValues></_>
        <_>
          <internalNodes>
            0 -1 240 -1.0960494400933385e-03</internalNodes>
          <leafValues>
            2.5941410660743713e-01 -1.3656088709831238e-01</leafValues></_>
        <_>
          <internalNodes>
            0 -1 15 2.6116568595170975e-02</internalNodes>
          <leafValues>
            -1.0232322663068771e-01 3.9850842952728271e-01</leafValues></_>
        <_>
          <internalNodes>
            0 -1 502 2.4243187159299850e-02</internalNodes>
          <leafValues>
            6.3896581530570984e-02 -7.0059663057327271e-01</leafValues></_>
        <_>
          <internalNodes>
            0 -1 263 8.8144763140007854e-04</internalNodes>
          <leafValues>
            -1.6792891919612885e-01 2.1592566370964050e-01</leafValues></_>
        <_>
          <internalNodes>
            0 -1 271 -3.2593230716884136e-03</internalNodes>
          <leafValues>
            3.8638290762901306e-01 -8.8519670069217682e-02</leafValues></_>
        <_>
          <internalNodes>
            0 -1 324 9.9293161183595657e-03</internalNodes>
          <leafValues>
            -1.1872054636478424e-01 2.8558808565139771e-01</leafValues></_>
        <_>
          <internalNodes>
            0 -1 423 4.6803588047623634e-03</internalNodes>
          <leafValues>
            -1.0308156162500381e-01 3.6684992909431458e-01</leafValues></_>
        <_>
          <internalNodes>
            0 -1 519 -6.7450702190399170e-03</internalNodes>
          <leafValues>
            -8.3087450265884399e-01 4.3317478150129318e-02</leafValues></_>
        <_>
          <internalNodes>
            0 -1 669 -9.5309352036565542e-04</internalNodes>
          <leafValues>
            2.7593141794204712e-01 -1.3430079817771912e-01</leafValues></_>
        <_>
          <internalNodes>
            0 -1 522 5.3602466359734535e-03</internalNodes>
          <leafValues>
            7.3759257793426514e-02 -5.4897820949554443e-01</leafValues></_>
        <_>
          <internalNodes>
            0 -1 284 2.2732238285243511e-03</internalNodes>
          <leafValues>
            -1.1031421273946762e-01 3.5225087404251099e-01</leafValues></_>
        <_>
          <internalNodes>
            0 -1 42 -3.8590382318943739e-03</internalNodes>
          <leafValues>
            2.4773915112018585e-01 -1.4797100424766541e-01</leafValues></_>
        <_>
          <internalNodes>
            0 -1 71 4.5579494326375425e-04</internalNodes>
          <leafValues>
            -1.7686559259891510e-01 2.0154528319835663e-01</leafValues></_></weakClassifiers></_>
    <!-- stage 1 -->
    <_>
      <maxWeakCount>51</maxWeakCount>
      <stageThreshold>-7.6778852939605713e-01</stageThreshold>
      <weakClassifiers>
        <_>
          <internalNodes>
            0 -1 656 2.4709987919777632e-03</internalNodes>
          <leafValues>
            1.9037199020385742e-01 6.3302749395370483e-01</leafValues></_>
        <_>
          <internalNodes>
            0 -1 369 -5.3401570767164230e-03</internalNodes>
          <leafValues>
            3.0002415180206299e-01 -1.0768261551856995e-01</leafValues></_>
        <_>
          <internalNodes>
            0 -1 428 -1.6110334545373917e-03</internalNodes>
          <leafValues>
            2.2898276150226593e-01 -2.0693163573741913e-01</leafValues></_>
        <_>
          <internalNodes>
            0 -1 713 -2.7543196920305490e-03</internalNodes>
          <leafValues>
            3.1107664108276367e-01 -9.2423141002655029e-02</leafValues></_>
        <_>
          <internalNodes>
            0 -1 563 -1.7154132947325706e-03</internalNodes>
          <leafValues>
            1.9593767821788788e-01 -1.9139146804809570e-01</leafValues></_>
        <_>
          <internalNodes>
            0 -1 442 -9.9391653202474117e-04</internalNodes>
          <leafValues>
            2.2563497722148895e-01 -1.4812785387039185e-01</leafValues></_>
        <_>
          <internalNodes>
            0 -1 350 2.5439288001507521e-03</internalNodes>
          <leafValues>
            -1.0043566673994064e-01 3.3107000589370728e-01</leafValues></_>
        <_>
          <internalNodes>
            0 -1 76 2.6457072817720473e-04</internalNodes>
          <leafValues>
            -1.6282781958580017e-01 1.9163322448730469e-01</leafValues></_>
        <_>
          <internalNodes>
            0 -1 299 -1.6658508684486151e-03</internalNodes>
          <leafValues>
            2.6209494471549988e-01 -1.0512633621692657e-01</leafValues></_>
        <_>
          <internalNodes>
            0 -1 545 5.3195012733340263e-03</internalNodes>
          <leafValues>
            5.2720930427312851e-02 -5.7030576467514038e-01</leafValues></_>
        <_>
          <internalNodes>
            0 -1 510 -1.2003162875771523e-02</internalNodes>
          <leafValues>
            -4.7946405410766602e-01 6.2333047389984131e-02</leafValues></_>
        <_>
          <internalNodes>
            0 -1 461 1.2294816551730037e-03</internalNodes>
          <leafValues>
            -1.4182083308696747e-01 2.0991903543472290e-01</leafValues></_>
        <_>
          <internalNodes>
            0 -1 660 9.1106927720829844e-04</internalNodes>
          <leafValues>
            -1.0160309076309204e-01 2.9138246178627014e-01</leafValues></_>
        <_>
          <internalNodes>
            0 -1 636 1.5463075600564480e-02</internalNodes>
          <leafValues>
            -1.1119286715984344e-01 2.5563812255859375e-01</leafValues></_>
        <_>
          <internalNodes>
            0 -1 91 -8.3928939420729876e-04</internalNodes>
          <leafValues>
            2.2158125042915344e-01 -1.2974707782268524e-01</leafValues></_>
        <_>
          <internalNodes>
            0 -1 663 -7.2663482278585434e-03</internalNodes>
          <leafValues>
            -5.7771497964859009e-01 5.3036227822303772e-02</leafValues></_>
        <_>
          <internalNodes>
            0 -1 222 2.6500250678509474e-03</internalNodes>
          <leafValues>
            -9.5746643841266632e-02 3.1565690040588379e-01</leafValues></_>
        <_>
          <internalNodes>
            0 -1 805 4.4362563639879227e-03</internalNodes>
          <leafValues>
            -1.3327707350254059e-01 1.9693847000598907e-01</leafValues></_>
        <_>
          <internalNodes>
            0 -1 412 2.3811454884707928e-03</internalNodes>
          <leafValues>
            -1.0262918472290039e-01 2.5786972045898438e-01</leafValues></_>
        <_>
          <internalNodes>
            0 -1 597 -4.9704886041581631e-03</internalNodes>
          <leafValues>
            -6.6347020864486694e-01 4.7409333288669586e-02</leafValues></_>
        <_>
          <internalNodes>
            0 -1 128 -1.2534444977063686e-04</internalNodes>
          <leafValues>
            1.6344815492630005e-01 -1.6422551870346069e-01</leafValues></_>
        <_>
          <internalNodes>
            0 -1 839 6.2569405417889357e-04</internalNodes>
          <leafValues>
            -1.4664624631404877e-01 1.7823903262615204e-01</leafValues></_>
        <_>
          <internalNodes>
            0 -1 613 -4.6308906748890877e-03</internalNodes>
          <leafValues>
            -6.4723408222198486e-01 4.0562029927968979e-02</leafValues></_>
        <_>
          <internalNodes>
            0 -1 673 -1.2218223419040442e-03</internalNodes>
          <leafValues>
            2.8681680560112000e-01 -9.6379183232784271e-02</leafValues></_>
        <_>
          <internalNodes>
            0 -1 775 4.7707404009997845e-03</internalNodes>
          <leafValues>
            -1.1400035023689270e-01 2.3690253496170044e-01</leafValues></_>
        <_>
          <internalNodes>
            0 -1 623 -8.8253756985068321e-04</internalNodes>
          <leafValues>
            1.8900573253631592e-01 -1.4005966484546661e-01</leafValues></_>
        <_>
          <internalNodes>
            0 -1 504 -2.0070143043994904e-02</internalNodes>
          <leafValues>
            -3.3785834908485413e-01 7.7228024601936340e-02</leafValues></_>
        <_>
          <internalNodes>
            0 -1 54 -9.5384670421481133e-03</internalNodes>
          <leafValues>
            4.3664529919624329e-01 -5.9513140469789505e-02</leafValues></_>
        <_>
          <internalNodes>
            0 -1 40 -1.1875803582370281e-02</internalNodes>
          <leafValues>
            2.9539909958839417e-01 -8.9522451162338257e-02</leafValues></_>
        <_>
          <internalNodes>
            0 -1 604 8.7433686712756753e-04</internalNodes>
          <leafValues>
            -9.8592616617679596e-02 2.4789929389953613e-01</leafValues></_>
        <_>
          <internalNodes>
            0 -1 533 -2.5476408191025257e-03</internalNodes>
          <leafValues>
            2.3692610859870911e-01 -1.0375860333442688e-01</leafValues></_>
        <_>
          <internalNodes>
            0 -1 219 -3.9595947600901127e-03</internalNodes>
          <leafValues>
            -4.3919795751571655e-01 5.5193215608596802e-02</leafValues></_>
        <_>
          <internalNodes>
            0 -1 421 3.2997548580169678e-02</internalNodes>
          <leafValues>
            -6.8153366446495056e-02 3.9029970765113831e-01</leafValues></_>
        <_>
          <internalNodes>
            0 -1 364 -4.9931313842535019e-03</internalNodes>
          <leafValues>
            2.3923490941524506e-01 -1.0261589288711548e-01</leafValues></_>
        <_>
          <internalNodes>
            0 -1 409 -1.0637730360031128e-02</internalNodes>
          <leafValues>
            -5.2599304914474487e-01 5.1900077611207962e-02</leafValues></_>
        <_>
          <internalNodes>
            0 -1 401 1.4028443954885006e-02</internalNodes>
          <leafValues>
            2.8763873502612114e-02 -7.4742609262466431e-01</leafValues></_>
        <_>
          <internalNodes>
            0 -1 55 -5.0921440124511719e-03</internalNodes>
          <leafValues>
            2.3964279890060425e-01 -9.7962677478790283e-02</leafValues></_>
        <_>
          <internalNodes>
            0 -1 699 -7.6762470416724682e-04</internalNodes>
          <leafValues>
            2.2870071232318878e-01 -1.0286630690097809e-01</leafValues></_>
        <_>
          <internalNodes>
            0 -1 506 -4.3793022632598877e-03</internalNodes>
          <leafValues>
            -4.9830976128578186e-01 4.8181135207414627e-02</leafValues></_>
        <_>
          <internalNodes>
            0 -1 559 1.8255721079185605e-03</internalNodes>
          <leafValues>
            -9.7802832722663879e-02 2.3253151774406433e-01</leafValues></_>
        <_>
          <internalNodes>
            0 -1 431 8.4071315359324217e-04</internalNodes>
          <leafValues>
            -1.3375827670097351e-01 1.7079730331897736e-01</leafValues></_>
        <_>
          <internalNodes>
            0 -1 321 5.3380094468593597e-03</internalNodes>
          <leafValues>
            -8.6161524057388306e-02 2.8189316391944885e-01</leafValues></_>
        <_>
          <internalNodes>
            0 -1 521 -4.6283327974379063e-03</internalNodes>
          <leafValues>
            -3.9641159772872925e-01 6.1297062784433365e-02</leafValues></_>
        <_>
          <internalNodes>
            0 -1 270 -9.2596304602921009e-04</internalNodes>
          <leafValues>
            1.9083662331104279e-01 -1.3107611238956451e-01</leafValues></_>
        <_>
          <internalNodes>
            0 -1 607 2.9045764356851578e-02</internalNodes>
          <leafValues>
            2.6335490867495537e-02 -9.5756626129150391e-01</leafValues></_>
        <_>
          <internalNodes>
            0 -1 573 -5.5791359394788742e-02</internalNodes>
          <leafValues>
            5.3863352537155151e-01 -5.2094850689172745e-02</leafValues></_>
        <_>
          <internalNodes>
            0 -1 689 1.4842811040580273e-02</internalNodes>
          <leafValues>
            -7.2979845106601715e-02 3.4120678901672363e-01</leafValues></_>
        <_>
          <internalNodes>
            0 -1 700 -9.1171078383922577e-03</internalNodes>
          <leafValues>
            -5.0871676206588745e-01 5.0126768648624420e-02</leafValues></_>
        <_>
          <internalNodes>
            0 -1 208 2.2398615255951881e-03</internalNodes>
          <leafValues>
            -1.1645807325839996e-01 1.8970565497875214e-01</leafValues></_>
        <_>
          <internalNodes>
            0 -1 316 -3.7025401834398508e-03</internalNodes>
          <leafValues>
            -6.0766762495040894e-01 3.9064813405275345e-02</leafValues></_>
        <_>
          <internalNodes>
            0 -1 762 -7.6071324292570353e-04</internalNodes>
          <leafValues>
            2.1375371515750885e-01 -1.1052894592285156e-01</leafValues></_></weakClassifiers></_>
    <!-- stage 2 -->
    <_>
      <maxWeakCount>62</maxWeakCount>
      <stageThreshold>-6.0686838626861572e-01</stageThreshold>
      <weakClassifiers>
        <_>
          <internalNodes>
            0 -1 710 -2.5041057961061597e-04</internalNodes>
          <leafValues>
            4.8732393980026245e-01 1.6249999403953552e-01</leafValues></_>
        <_>
          <internalNodes>
            0 -1 769 2.1720859222114086e-03</internalNodes>
          <leafValues>
            -8.9289493858814240e-02 2.5931420922279358e-01</leafValues></_>
        <_>
          <internalNodes>
            0 -1 193 4.1156541556119919e-04</internalNodes>
          <leafValues>
            -1.1874850094318390e-01 2.1738465130329132e-01</leafValues></_>
        <_>
          <internalNodes>
            0 -1 600 3.2361841294914484e-04</internalNodes>
          <leafValues>
            -2.1101251244544983e-01 1.1920826882123947e-01</leafValues></_>
        <_>
          <internalNodes>
            0 -1 518 4.7795422375202179e-02</internalNodes>
          <leafValues>
            5.4330643266439438e-02 -3.9575839042663574e-01</leafValues></_>
        <_>
          <internalNodes>
            0 -1 375 1.9723367877304554e-03</internalNodes>
          <leafValues>
            -8.8298901915550232e-02 2.6113021373748779e-01</leafValues></_>
        <_>
          <internalNodes>
            0 -1 66 -5.7637598365545273e-04</internalNodes>
          <leafValues>
            1.8916805088520050e-01 -1.1758448183536530e-01</leafValues></_>
        <_>
          <internalNodes>
            0 -1 840 2.3130667395889759e-03</internalNodes>
          <leafValues>
            -9.1640241444110870e-02 2.4170880019664764e-01</leafValues></_>
        <_>
          <internalNodes>
            0 -1 777 -1.0618686210364103e-03</internalNodes>
          <leafValues>
            2.0671379566192627e-01 -1.1162567138671875e-01</leafValues></_>
        <_>
          <internalNodes>
            0 -1 509 1.3697942718863487e-02</internalNodes>
          <leafValues>
            5.3400974720716476e-02 -4.3003457784652710e-01</leafValues></_>
        <_>
          <internalNodes>
            0 -1 466 1.0299361310899258e-03</internalNodes>
          <leafValues>
            1.0630361735820770e-01 -2.3697161674499512e-01</leafValues></_>
        <_>
          <internalNodes>
            0 -1 717 -1.2987907975912094e-03</internalNodes>
          <leafValues>
            2.4386814236640930e-01 -8.8568106293678284e-02</leafValues></_>
        <_>
          <internalNodes>
            0 -1 132 2.6949970051646233e-03</internalNodes>
          <leafValues>
            5.2192933857440948e-02 -3.8007727265357971e-01</leafValues></_>
        <_>
          <internalNodes>
            0 -1 216 1.6866400837898254e-03</internalNodes>
          <leafValues>
            -8.9079827070236206e-02 2.4256315827369690e-01</leafValues></_>
        <_>
          <internalNodes>
            0 -1 105 -9.3187922611832619e-03</internalNodes>
          <leafValues>
            3.6465629935264587e-01 -6.3280194997787476e-02</leafValues></_>
        <_>
          <internalNodes>
            0 -1 67 -1.8920105649158359e-03</internalNodes>
          <leafValues>
            2.2976793348789215e-01 -8.6181782186031342e-02</leafValues></_>
        <_>
          <internalNodes>
            0 -1 77 2.8972967993468046e-03</internalNodes>
          <leafValues>
            -1.0435087233781815e-01 2.2910407185554504e-01</leafValues></_>
        <_>
          <internalNodes>
            0 -1 62 -5.2625965327024460e-03</internalNodes>
          <leafValues>
            1.8697041273117065e-01 -1.1026109755039215e-01</leafValues></_>
        <_>
          <internalNodes>
            0 -1 530 1.6816256567835808e-02</internalNodes>
          <leafValues>
            3.4168418496847153e-02 -7.1987992525100708e-01</leafValues></_>
        <_>
          <internalNodes>
            0 -1 670 -4.3700896203517914e-03</internalNodes>
          <leafValues>
            -5.0492477416992188e-01 3.5424564033746719e-02</leafValues></_>
        <_>
          <internalNodes>
            0 -1 498 1.4780586352571845e-03</internalNodes>
          <leafValues>
            -1.2334700673818588e-01 1.6605401039123535e-01</leafValues></_>
        <_>
          <internalNodes>
            0 -1 517 -2.4765204638242722e-02</internalNodes>
          <leafValues>
            -7.6434946060180664e-01 2.6009369641542435e-02</leafValues></_>
        <_>
          <internalNodes>
            0 -1 586 1.0866224765777588e-03</internalNodes>
          <leafValues>
            -1.1352878063917160e-01 1.9354523718357086e-01</leafValues></_>
        <_>
          <internalNodes>
            0 -1 223 -2.1027724724262953e-03</internalNodes>
          <leafValues>
            2.0303557813167572e-01 -1.1702380329370499e-01</leafValues></_>
        <_>
          <internalNodes>
            0 -1 479 3.4486371441744268e-04</internalNodes>
          <leafValues>
            -1.2584324181079865e-01 1.9045333564281464e-01</leafValues></_>
        <_>
          <internalNodes>
            0 -1 500 -3.7250225432217121e-03</internalNodes>
          <leafValues>
            -5.9295678138732910e-01 4.4406339526176453e-02</leafValues></_>
        <_>
          <internalNodes>
            0 -1 257 -3.4718830138444901e-03</internalNodes>
          <leafValues>
            2.0591083168983459e-01 -1.0986062139272690e-01</leafValues></_>
        <_>
          <internalNodes>
            0 -1 383 -1.7466978169977665e-03</internalNodes>
          <leafValues>
            1.8282271921634674e-01 -1.1433596909046173e-01</leafValues></_>
        <_>
          <internalNodes>
            0 -1 846 -3.9764028042554855e-03</internalNodes>
          <leafValues>
            -6.1571604013442993e-01 3.1640782952308655e-02</leafValues></_>
        <_>
          <internalNodes>
            0 -1 620 8.9902216568589211e-03</internalNodes>
          <leafValues>
            -7.5699687004089355e-02 2.6188075542449951e-01</leafValues></_>
        <_>
          <internalNodes>
            0 -1 190 -1.5427558124065399e-01</internalNodes>
          <leafValues>
            3.7268960475921631e-01 -5.2249737083911896e-02</leafValues></_>
        <_>
          <internalNodes>
            0 -1 115 -5.9532262384891510e-02</internalNodes>
          <leafValues>
            5.1259624958038330e-01 -3.7634119391441345e-02</leafValues></_>
        <_>
          <internalNodes>
            0 -1 330 1.2210514396429062e-03</internalNodes>
          <leafValues>
            -8.6896248161792755e-02 2.1928423643112183e-01</leafValues></_>
        <_>
          <internalNodes>
            0 -1 16 4.2981501668691635e-02</internalNodes>
          <leafValues>
            -4.0325317531824112e-02 4.6679151058197021e-01</leafValues></_>
        <_>
          <internalNodes>
            0 -1 781 2.3965030908584595e-02</internalNodes>
          <leafValues>
            -2.9099168255925179e-02 5.6921231746673584e-01</leafValues></_>
        <_>
          <internalNodes>
            0 -1 588 3.7801659200340509e-03</internalNodes>
          <leafValues>
            -8.7859570980072021e-02 2.2320516407489777e-01</leafValues></_>
        <_>
          <internalNodes>
            0 -1 282 -9.2980585992336273e-02</internalNodes>
          <leafValues>
            -5.3716319799423218e-01 4.1976705193519592e-02</leafValues></_>
        <_>
          <internalNodes>
            0 -1 625 -6.2935063615441322e-03</internalNodes>
          <leafValues>
            -4.7013545036315918e-01 3.9896145462989807e-02</leafValues></_>
        <_>
          <internalNodes>
            0 -1 457 4.9580838531255722e-03</internalNodes>
          <leafValues>
            -7.7433355152606964e-02 2.4819031357765198e-01</leafValues></_>
        <_>
          <internalNodes>
            0 -1 661 1.4849639264866710e-03</internalNodes>
          <leafValues>
            -9.3090705573558807e-02 2.3530271649360657e-01</leafValues></_>
        <_>
          <internalNodes>
            0 -1 664 -2.2673294879496098e-03</internalNodes>
          <leafValues>
            2.2728082537651062e-01 -9.6552357077598572e-02</leafValues></_>
        <_>
          <internalNodes>
            0 -1 615 -7.2731748223304749e-03</internalNodes>
          <leafValues>
            -5.6987947225570679e-01 3.8953714072704315e-02</leafValues></_>
        <_>
          <internalNodes>
            0 -1 535 4.7304001054726541e-04</internalNodes>
          <leafValues>
            -1.1517790704965591e-01 1.7250728607177734e-01</leafValues></_>
        <_>
          <internalNodes>
            0 -1 619 -4.9540102481842041e-03</internalNodes>
          <leafValues>
            -6.4428752660751343e-01 3.2015148550271988e-02</leafValues></_>
        <_>
          <internalNodes>
            0 -1 525 6.0161184519529343e-03</internalNodes>
          <leafValues>
            8.5552513599395752e-02 -2.3235818743705750e-01</leafValues></_>
        <_>
          <internalNodes>
            0 -1 577 1.1834801174700260e-02</internalNodes>
          <leafValues>
            5.9788003563880920e-02 -3.5844007134437561e-01</leafValues></_>
        <_>
          <internalNodes>
            0 -1 644 -1.8841901328414679e-03</internalNodes>
          <leafValues>
            2.0418897271156311e-01 -1.0397318005561829e-01</leafValues></_>
        <_>
          <internalNodes>
            0 -1 783 6.0392029583454132e-02</internalNodes>
          <leafValues>
            -5.6670941412448883e-02 3.4135589003562927e-01</leafValues></_>
        <_>
          <internalNodes>
            0 -1 763 5.5921645835042000e-03</internalNodes>
          <leafValues>
            3.7549547851085663e-02 -5.8029061555862427e-01</leafValues></_>
        <_>
          <internalNodes>
            0 -1 820 -4.7348640509881079e-04</internalNodes>
          <leafValues>
            1.6641741991043091e-01 -1.2532676756381989e-01</leafValues></_>
        <_>
          <internalNodes>
            0 -1 55 -5.8308918960392475e-03</internalNodes>
          <leafValues>
            2.7002230286598206e-01 -7.4649699032306671e-02</leafValues></_>
        <_>
          <internalNodes>
            0 -1 6 2.8964482247829437e-02</internalNodes>
          <leafValues>
            -4.4492647051811218e-02 5.2002942562103271e-01</leafValues></_>
        <_>
          <internalNodes>
            0 -1 680 4.0245730429887772e-02</internalNodes>
          <leafValues>
            -2.9705038294196129e-02 5.7596904039382935e-01</leafValues></_>
        <_>
          <internalNodes>
            0 -1 578 3.3382326364517212e-04</internalNodes>
          <leafValues>
            -1.1144002526998520e-01 1.7392675578594208e-01</leafValues></_>
        <_>
          <internalNodes>
            0 -1 610 -9.7763841040432453e-04</internalNodes>
          <leafValues>
            2.0401227474212646e-01 -9.5778934657573700e-02</leafValues></_>
        <_>
          <internalNodes>
            0 -1 425 1.6505848616361618e-03</internalNodes>
          <leafValues>
            -8.4793649613857269e-02 2.5407531857490540e-01</leafValues></_>
        <_>
          <internalNodes>
            0 -1 367 -3.1552785076200962e-03</internalNodes>
          <leafValues>
            2.0445954799652100e-01 -1.1198664456605911e-01</leafValues></_>
        <_>
          <internalNodes>
            0 -1 686 6.2879553297534585e-04</internalNodes>
          <leafValues>
            -1.1513342708349228e-01 1.8995353579521179e-01</leafValues></_>
        <_>
          <internalNodes>
            0 -1 581 1.5569431707262993e-03</internalNodes>
          <leafValues>
            -9.3081295490264893e-02 2.1916191279888153e-01</leafValues></_>
        <_>
          <internalNodes>
            0 -1 513 1.5684219077229500e-02</internalNodes>
          <leafValues>
            2.6608610525727272e-02 -8.9327067136764526e-01</leafValues></_>
        <_>
          <internalNodes>
            0 -1 816 -1.3446639059111476e-03</internalNodes>
          <leafValues>
            -1.7890734970569611e-01 1.1564735323190689e-01</leafValues></_>
        <_>
          <internalNodes>
            0 -1 490 -5.8939666487276554e-03</internalNodes>
          <leafValues>
            -5.3275597095489502e-01 3.9851520210504532e-02</leafValues></_></weakClassifiers></_>
    <!-- stage 3 -->
    <_>
      <maxWeakCount>62</maxWeakCount>
      <stageThreshold>-5.5581569671630859e-01</stageThreshold>
      <weakClassifiers>
        <_>
          <internalNodes>
            0 -1 711 4.4076335616409779e-03</internalNodes>
          <leafValues>
            3.7638670206069946e-01 -2.8409090638160706e-01</leafValues></_>
        <_>
          <internalNodes>
            0 -1 424 8.8256169110536575e-03</internalNodes>
          <leafValues>
            -6.0300294309854507e-02 3.3827620744705200e-01</leafValues></_>
        <_>
          <internalNodes>
            0 -1 454 -5.3400984033942223e-03</internalNodes>
          <leafValues>
            -5.6180334091186523e-01 4.6607162803411484e-02</leafValues></_>
        <_>
          <internalNodes>
            0 -1 380 -1.7124481499195099e-02</internalNodes>
          <leafValues>
            2.7746942639350891e-01 -8.8607594370841980e-02</leafValues></_>
        <_>
          <internalNodes>
            0 -1 372 4.5968033373355865e-03</internalNodes>
          <leafValues>
            3.0649043619632721e-02 -5.2686387300491333e-01</leafValues></_>
        <_>
          <internalNodes>
            0 -1 659 -3.2836929894983768e-03</internalNodes>
          <leafValues>
            1.4343670010566711e-01 -1.5933592617511749e-01</leafValues></_>
        <_>
          <internalNodes>
            0 -1 519 -6.7536989226937294e-03</internalNodes>
          <leafValues>
            -7.6989006996154785e-01 3.6924218293279409e-03</leafValues></_>
        <_>
          <internalNodes>
            0 -1 592 1.4283780474215746e-03</internalNodes>
          <leafValues>
            -1.0860633105039597e-01 2.2620713710784912e-01</leafValues></_>
        <_>
          <internalNodes>
            0 -1 562 -1.6669988632202148e-02</internalNodes>
          <leafValues>
            -3.2633697986602783e-01 8.5276514291763306e-02</leafValues></_>
        <_>
          <internalNodes>
            0 -1 521 -1.8355336505919695e-03</internalNodes>
          <leafValues>
            -2.5702974200248718e-01 9.2947475612163544e-02</leafValues></_>
        <_>
          <internalNodes>
            0 -1 151 -3.7348242476582527e-03</internalNodes>
          <leafValues>
            2.3808707296848297e-01 -1.0299427062273026e-01</leafValues></_>
        <_>
          <internalNodes>
            0 -1 663 9.1515854001045227e-03</internalNodes>
          <leafValues>
            5.1640972495079041e-02 -4.8729991912841797e-01</leafValues></_>
        <_>
          <internalNodes>
            0 -1 662 -1.8767630681395531e-03</internalNodes>
          <leafValues>
            -2.5078666210174561e-01 8.4014646708965302e-02</leafValues></_>
        <_>
          <internalNodes>
            0 -1 657 -5.1314691081643105e-03</internalNodes>
          <leafValues>
            1.8653330206871033e-01 -1.3184419274330139e-01</leafValues></_>
        <_>
          <internalNodes>
            0 -1 295 1.6653481870889664e-02</internalNodes>
          <leafValues>
            -6.6137164831161499e-02 3.2889202237129211e-01</leafValues></_>
        <_>
          <internalNodes>
            0 -1 22 -1.4446036517620087e-01</internalNodes>
          <leafValues>
            6.8359202146530151e-01 -3.4187655895948410e-02</leafValues></_>
        <_>
          <internalNodes>
            0 -1 89 1.5044279396533966e-02</internalNodes>
          <leafValues>
            6.3028290867805481e-02 -3.6227616667747498e-01</leafValues></_>
        <_>
          <internalNodes>
            0 -1 422 -6.5383054316043854e-03</internalNodes>
          <leafValues>
            2.6229587197303772e-01 -7.7574208378791809e-02</leafValues></_>
        <_>
          <internalNodes>
            0 -1 394 -8.1861543003469706e-04</internalNodes>
          <leafValues>
            2.1590600907802582e-01 -9.3191638588905334e-02</leafValues></_>
        <_>
          <internalNodes>
            0 -1 496 -6.8070720881223679e-03</internalNodes>
          <leafValues>
            -4.1885542869567871e-01 5.0255052745342255e-02</leafValues></_>
        <_>
          <internalNodes>
            0 -1 359 -1.4106834307312965e-02</internalNodes>
          <leafValues>
            2.1687358617782593e-01 -8.5963264107704163e-02</leafValues></_>
        <_>
          <internalNodes>
            0 -1 633 5.0511425361037254e-03</internalNodes>
          <leafValues>
            -6.3958398997783661e-02 3.0770856142044067e-01</leafValues></_>
        <_>
          <internalNodes>
            0 -1 226 -5.2830446511507034e-03</internalNodes>
          <leafValues>
            -3.4536683559417725e-01 6.4227305352687836e-02</leafValues></_>
        <_>
          <internalNodes>
            0 -1 221 4.2993798851966858e-03</internalNodes>
          <leafValues>
            8.1794656813144684e-02 -3.3068108558654785e-01</leafValues></_>
        <_>
          <internalNodes>
            0 -1 574 -1.9446633756160736e-02</internalNodes>
          <leafValues>
            -4.8906648159027100e-01 4.0563944727182388e-02</leafValues></_>
        <_>
          <internalNodes>
            0 -1 579 2.4283966049551964e-03</internalNodes>
          <leafValues>
            -1.2129358947277069e-01 1.6640904545783997e-01</leafValues></_>
        <_>
          <internalNodes>
            0 -1 400 5.7614915072917938e-02</internalNodes>
          <leafValues>
            4.8506624996662140e-02 -5.8397799730300903e-01</leafValues></_>
        <_>
          <internalNodes>
            0 -1 143 1.4966626185923815e-03</internalNodes>
          <leafValues>
            -1.1585021018981934e-01 1.6937905550003052e-01</leafValues></_>
        <_>
          <internalNodes>
            0 -1 597 4.4737635180354118e-03</internalNodes>
          <leafValues>
            4.4180922210216522e-02 -4.5132714509963989e-01</leafValues></_>
        <_>
          <internalNodes>
            0 -1 228 -1.0779876261949539e-02</internalNodes>
          <leafValues>
            2.0965279638767242e-01 -9.4304867088794708e-02</leafValues></_>
        <_>
          <internalNodes>
            0 -1 611 1.8406114540994167e-03</internalNodes>
          <leafValues>
            -8.0374263226985931e-02 2.4433399736881256e-01</leafValues></_>
        <_>
          <internalNodes>
            0 -1 404 6.9902814924716949e-02</internalNodes>
          <leafValues>
            7.0890255272388458e-02 -2.8219026327133179e-01</leafValues></_>
        <_>
          <internalNodes>
            0 -1 371 -8.3743745926767588e-04</internalNodes>
          <leafValues>
            2.1621391177177429e-01 -8.8081769645214081e-02</leafValues></_>
        <_>
          <internalNodes>
            0 -1 318 1.5914528630673885e-03</internalNodes>
          <leafValues>
            -1.1010640114545822e-01 2.5927135348320007e-01</leafValues></_>
        <_>
          <internalNodes>
            0 -1 557 -2.5354777462780476e-03</internalNodes>
          <leafValues>
            -3.1593385338783264e-01 6.7283496260643005e-02</leafValues></_>
        <_>
          <internalNodes>
            0 -1 73 4.6250456944108009e-03</internalNodes>
          <leafValues>
            5.0894454121589661e-02 -3.7248423695564270e-01</leafValues></_>
        <_>
          <internalNodes>
            0 -1 632 -3.3449037000536919e-03</internalNodes>
          <leafValues>
            -3.6705058813095093e-01 5.2771594375371933e-02</leafValues></_>
        <_>
          <internalNodes>
            0 -1 462 -3.1711566261947155e-03</internalNodes>
          <leafValues>
            2.6375782489776611e-01 -7.5692676007747650e-02</leafValues></_>
        <_>
          <internalNodes>
            0 -1 817 6.4616557210683823e-04</internalNodes>
          <leafValues>
            -1.1573807150125504e-01 1.6402974724769592e-01</leafValues></_>
        <_>
          <internalNodes>
            0 -1 285 4.0534641593694687e-03</internalNodes>
          <leafValues>
            5.3457882255315781e-02 -3.6242032051086426e-01</leafValues></_>
        <_>
          <internalNodes>
            0 -1 386 2.8250440955162048e-02</internalNodes>
          <leafValues>
            2.6116276159882545e-02 -6.6773229837417603e-01</leafValues></_>
        <_>
          <internalNodes>
            0 -1 675 7.9965719487518072e-04</internalNodes>
          <leafValues>
            -9.2602446675300598e-02 2.0338937640190125e-01</leafValues></_>
        <_>
          <internalNodes>
            0 -1 806 1.4837933704257011e-03</internalNodes>
          <leafValues>
            7.1555718779563904e-02 -2.7204513549804688e-01</leafValues></_>
        <_>
          <internalNodes>
            0 -1 449 4.2903207242488861e-02</internalNodes>
          <leafValues>
            3.3401031047105789e-02 -5.3653383255004883e-01</leafValues></_>
        <_>
          <internalNodes>
            0 -1 413 6.0306545346975327e-03</internalNodes>
          <leafValues>
            -4.9872837960720062e-02 3.8676986098289490e-01</leafValues></_>
        <_>
          <internalNodes>
            0 -1 847 -6.0218563303351402e-03</internalNodes>
          <leafValues>
            -6.1662542819976807e-01 3.1952101737260818e-02</leafValues></_>
        <_>
          <internalNodes>
            0 -1 170 2.8649447485804558e-03</internalNodes>
          <leafValues>
            -1.0848331451416016e-01 1.7246714234352112e-01</leafValues></_>
        <_>
          <internalNodes>
            0 -1 59 8.6816283874213696e-04</internalNodes>
          <leafValues>
            1.0369166731834412e-01 -1.7005364596843719e-01</leafValues></_>
        <_>
          <internalNodes>
            0 -1 415 -6.4133922569453716e-04</internalNodes>
          <leafValues>
            1.9294713437557220e-01 -9.8825983703136444e-02</leafValues></_>
        <_>
          <internalNodes>
            0 -1 389 1.1834155768156052e-02</internalNodes>
          <leafValues>
            -7.0718802511692047e-02 2.5607499480247498e-01</leafValues></_>
        <_>
          <internalNodes>
            0 -1 471 9.9701173603534698e-03</internalNodes>
          <leafValues>
            4.1263099759817123e-02 -4.7980010509490967e-01</leafValues></_>
        <_>
          <internalNodes>
            0 -1 470 -8.8027659803628922e-03</internalNodes>
          <leafValues>
            -5.9552419185638428e-01 3.2192170619964600e-02</leafValues></_>
        <_>
          <internalNodes>
            0 -1 269 -3.6371853202581406e-03</internalNodes>
          <leafValues>
            -3.6778587102890015e-01 4.9115192145109177e-02</leafValues></_>
        <_>
          <internalNodes>
            0 -1 122 3.1237034127116203e-02</internalNodes>
          <leafValues>
            -5.5599573999643326e-02 3.6610037088394165e-01</leafValues></_>
        <_>
          <internalNodes>
            0 -1 225 4.3242140673100948e-03</internalNodes>
          <leafValues>
            -7.6003104448318481e-02 2.3785661160945892e-01</leafValues></_>
        <_>
          <internalNodes>
            0 -1 549 1.1467814445495605e-02</internalNodes>
          <leafValues>
            2.7334788814187050e-02 -7.0278495550155640e-01</leafValues></_>
        <_>
          <internalNodes>
            0 -1 788 -6.4621195197105408e-02</internalNodes>
          <leafValues>
            5.9459543228149414e-01 -3.5266302525997162e-02</leafValues></_>
        <_>
          <internalNodes>
            0 -1 568 -2.8434931300580502e-03</internalNodes>
          <leafValues>
            1.5472894906997681e-01 -1.1427084356546402e-01</leafValues></_>
        <_>
          <internalNodes>
            0 -1 637 2.6629559695720673e-02</internalNodes>
          <leafValues>
            -8.3990782499313354e-02 2.6676338911056519e-01</leafValues></_>
        <_>
          <internalNodes>
            0 -1 822 2.8575127944350243e-03</internalNodes>
          <leafValues>
            4.6845089644193649e-02 -4.3895399570465088e-01</leafValues></_>
        <_>
          <internalNodes>
            0 -1 645 -1.1969562619924545e-02</internalNodes>
          <leafValues>
            2.7248916029930115e-01 -7.9372294247150421e-02</leafValues></_>
        <_>
          <internalNodes>
            0 -1 819 -4.0303246350958943e-04</internalNodes>
          <leafValues>
            1.6652107238769531e-01 -1.2514950335025787e-01</leafValues></_></weakClassifiers></_>
    <!-- stage 4 -->
    <_>
      <maxWeakCount>82</maxWeakCount>
      <stageThreshold>-5.9793329238891602e-01</stageThreshold>
      <weakClassifiers>
        <_>
          <internalNodes>
            0 -1 600 -3.0671856366097927e-03</internalNodes>
          <leafValues>
            -1.1111111193895340e-01 3.7908497452735901e-01</leafValues></_>
        <_>
          <internalNodes>
            0 -1 275 9.2960949987173080e-03</internalNodes>
          <leafValues>
            -6.9704376161098480e-02 3.1608721613883972e-01</leafValues></_>
        <_>
          <internalNodes>
            0 -1 709 -7.3916546534746885e-04</internalNodes>
          <leafValues>
            1.7838363349437714e-01 -1.3015614449977875e-01</leafValues></_>
        <_>
          <internalNodes>
            0 -1 658 1.5542143955826759e-02</internalNodes>
          <leafValues>
            -1.1302641779184341e-01 2.7699935436248779e-01</leafValues></_>
        <_>
          <internalNodes>
            0 -1 596 -1.0302545502781868e-02</internalNodes>
          <leafValues>
            2.3374021053314209e-01 -1.1057051271200180e-01</leafValues></_>
        <_>
          <internalNodes>
            0 -1 385 1.0523848235607147e-02</internalNodes>
          <leafValues>
            -1.0681606829166412e-01 2.1173222362995148e-01</leafValues></_>
        <_>
          <internalNodes>
            0 -1 331 -2.7135871350765228e-03</internalNodes>
          <leafValues>
            1.6180624067783356e-01 -1.4203366637229919e-01</leafValues></_>
        <_>
          <internalNodes>
            0 -1 484 -4.1859894990921021e-03</internalNodes>
          <leafValues>
            2.2285765409469604e-01 -9.0610586106777191e-02</leafValues></_>
        <_>
          <internalNodes>
            0 -1 274 -8.8300565257668495e-03</internalNodes>
          <leafValues>
            2.9149246215820312e-01 -7.9610072076320648e-02</leafValues></_>
        <_>
          <internalNodes>
            0 -1 753 -3.6931904032826424e-03</internalNodes>
          <leafValues>
            -4.3662691116333008e-01 5.3814634680747986e-02</leafValues></_>
        <_>
          <internalNodes>
            0 -1 81 1.6856419388204813e-03</internalNodes>
          <leafValues>
            -1.0499288141727448e-01 2.1233181655406952e-01</leafValues></_>
        <_>
          <internalNodes>
            0 -1 266 9.1709231492131948e-04</internalNodes>
          <leafValues>
            -8.9815720915794373e-02 2.2774887084960938e-01</leafValues></_>
        <_>
          <internalNodes>
            0 -1 782 7.9288236796855927e-02</internalNodes>
          <leafValues>
            -4.4862508773803711e-02 4.5426166057586670e-01</leafValues></_>
        <_>
          <internalNodes>
            0 -1 687 -3.4559471532702446e-03</internalNodes>
          <leafValues>
            -5.0197190046310425e-01 4.1391093283891678e-02</leafValues></_>
        <_>
          <internalNodes>
            0 -1 463 -8.9510402176529169e-04</internalNodes>
          <leafValues>
            2.2544944286346436e-01 -8.9628048241138458e-02</leafValues></_>
        <_>
          <internalNodes>
            0 -1 741 -3.7509918212890625e-02</internalNodes>
          <leafValues>
            2.1685259044170380e-01 -8.5566446185112000e-02</leafValues></_>
        <_>
          <internalNodes>
            0 -1 57 3.8104066625237465e-03</internalNodes>
          <leafValues>
            -1.0985396802425385e-01 1.9275093078613281e-01</leafValues></_>
        <_>
          <internalNodes>
            0 -1 676 -2.0823457743972540e-03</internalNodes>
          <leafValues>
            2.3000480234622955e-01 -7.8368186950683594e-02</leafValues></_>
        <_>
          <internalNodes>
            0 -1 333 5.7554198428988457e-03</internalNodes>
          <leafValues>
            3.8025427609682083e-02 -5.3781378269195557e-01</leafValues></_>
        <_>
          <internalNodes>
            0 -1 812 5.1193742547184229e-04</internalNodes>
          <leafValues>
            -9.7479790449142456e-02 1.9072365760803223e-01</leafValues></_>
        <_>
          <internalNodes>
            0 -1 797 -9.9094607867300510e-04</internalNodes>
          <leafValues>
            1.5375748276710510e-01 -1.1822498589754105e-01</leafValues></_>
        <_>
          <internalNodes>
            0 -1 207 7.6107052154839039e-04</internalNodes>
          <leafValues>
            -1.0403179377317429e-01 1.7736947536468506e-01</leafValues></_>
        <_>
          <internalNodes>
            0 -1 714 -1.3585535809397697e-02</internalNodes>
          <leafValues>
            -8.0514866113662720e-01 2.0215844735503197e-02</leafValues></_>
        <_>
          <internalNodes>
            0 -1 306 3.5836615134030581e-03</internalNodes>
          <leafValues>
            -8.5134766995906830e-02 2.2185958921909332e-01</leafValues></_>
        <_>
          <internalNodes>
            0 -1 644 -1.3508625561371446e-03</internalNodes>
          <leafValues>
            1.8663673102855682e-01 -9.7387917339801788e-02</leafValues></_>
        <_>
          <internalNodes>
            0 -1 1 3.9426393806934357e-02</internalNodes>
          <leafValues>
            -4.8618670552968979e-02 3.8202634453773499e-01</leafValues></_>
        <_>
          <internalNodes>
            0 -1 127 -1.1663922487059608e-04</internalNodes>
          <leafValues>
            1.4205475151538849e-01 -1.4592680335044861e-01</leafValues></_>
        <_>
          <internalNodes>
            0 -1 648 -2.6702033355832100e-03</internalNodes>
          <leafValues>
            -3.8593670725822449e-01 5.0111804157495499e-02</leafValues></_>
        <_>
          <internalNodes>
            0 -1 540 2.4677442386746407e-02</internalNodes>
          <leafValues>
            1.7270732671022415e-02 -9.5858913660049438e-01</leafValues></_>
        <_>
          <internalNodes>
            0 -1 80 5.2753044292330742e-03</internalNodes>
          <leafValues>
            2.8061019256711006e-02 -5.3598958253860474e-01</leafValues></_>
        <_>
          <internalNodes>
            0 -1 764 4.1671358048915863e-03</internalNodes>
          <leafValues>
            2.9689766466617584e-02 -5.1385867595672607e-01</leafValues></_>
        <_>
          <internalNodes>
            0 -1 603 2.0193890668451786e-03</internalNodes>
          <leafValues>
            -9.4524279236793518e-02 1.9143676757812500e-01</leafValues></_>
        <_>
          <internalNodes>
            0 -1 303 -7.1594039909541607e-03</internalNodes>
          <leafValues>
            2.4340415000915527e-01 -7.8813701868057251e-02</leafValues></_>
        <_>
          <internalNodes>
            0 -1 722 2.6853356510400772e-02</internalNodes>
          <leafValues>
            -5.2806470543146133e-02 3.3801957964897156e-01</leafValues></_>
        <_>
          <internalNodes>
            0 -1 697 -8.5775851039215922e-04</internalNodes>
          <leafValues>
            1.5390682220458984e-01 -1.2188456952571869e-01</leafValues></_>
        <_>
          <internalNodes>
            0 -1 24 -5.8326637372374535e-04</internalNodes>
          <leafValues>
            1.5065212547779083e-01 -1.2365103513002396e-01</leafValues></_>
        <_>
          <internalNodes>
            0 -1 748 2.0157739520072937e-02</internalNodes>
          <leafValues>
            -1.0097903013229370e-01 1.9388090074062347e-01</leafValues></_>
        <_>
          <internalNodes>
            0 -1 821 5.4373132297769189e-04</internalNodes>
          <leafValues>
            1.0440210253000259e-01 -1.6608612239360809e-01</leafValues></_>
        <_>
          <internalNodes>
            0 -1 328 4.6732472255825996e-03</internalNodes>
          <leafValues>
            3.6621287465095520e-02 -4.7082555294036865e-01</leafValues></_>
        <_>
          <internalNodes>
            0 -1 249 -8.8710207492113113e-03</internalNodes>
          <leafValues>
            2.8130239248275757e-01 -5.9514179825782776e-02</leafValues></_>
        <_>
          <internalNodes>
            0 -1 409 -1.1516056954860687e-02</internalNodes>
          <leafValues>
            -5.3103512525558472e-01 3.4577459096908569e-02</leafValues></_>
        <_>
          <internalNodes>
            0 -1 723 -1.4405215159058571e-02</internalNodes>
          <leafValues>
            2.9204437136650085e-01 -6.7948877811431885e-02</leafValues></_>
        <_>
          <internalNodes>
            0 -1 345 -2.7256417088210583e-03</internalNodes>
          <leafValues>
            2.3079113662242889e-01 -8.8849306106567383e-02</leafValues></_>
        <_>
          <internalNodes>
            0 -1 195 -2.7818242087960243e-03</internalNodes>
          <leafValues>
            1.9466830790042877e-01 -9.9311530590057373e-02</leafValues></_>
        <_>
          <internalNodes>
            0 -1 13 -1.8769863992929459e-02</internalNodes>
          <leafValues>
            2.2024950385093689e-01 -8.9231103658676147e-02</leafValues></_>
        <_>
          <internalNodes>
            0 -1 349 -3.0735088512301445e-03</internalNodes>
          <leafValues>
            -4.4825401902198792e-01 4.4623900204896927e-02</leafValues></_>
        <_>
          <internalNodes>
            0 -1 688 1.4708952978253365e-02</internalNodes>
          <leafValues>
            -2.3705512285232544e-02 8.3414721488952637e-01</leafValues></_>
        <_>
          <internalNodes>
            0 -1 512 -4.4594757491722703e-04</internalNodes>
          <leafValues>
            1.5377750992774963e-01 -1.1753146350383759e-01</leafValues></_>
        <_>
          <internalNodes>
            0 -1 342 -1.2012092629447579e-03</internalNodes>
          <leafValues>
            1.8959097564220428e-01 -9.6273034811019897e-02</leafValues></_>
        <_>
          <internalNodes>
            0 -1 296 4.7405734658241272e-03</internalNodes>
          <leafValues>
            -7.5857214629650116e-02 2.5239601731300354e-01</leafValues></_>
        <_>
          <internalNodes>
            0 -1 416 5.3887101821601391e-03</internalNodes>
          <leafValues>
            4.3426379561424255e-02 -4.6207338571548462e-01</leafValues></_>
        <_>
          <internalNodes>
            0 -1 651 5.6830225512385368e-03</internalNodes>
          <leafValues>
            -9.2647664248943329e-02 2.0365004241466522e-01</leafValues></_>
        <_>
          <internalNodes>
            0 -1 792 1.2611832935363054e-03</internalNodes>
          <leafValues>
            -1.0243850201368332e-01 1.9251780211925507e-01</leafValues></_>
        <_>
          <internalNodes>
            0 -1 811 -8.5157137364149094e-03</internalNodes>
          <leafValues>
            2.4504671990871429e-01 -8.6636096239089966e-02</leafValues></_>
        <_>
          <internalNodes>
            0 -1 427 1.8021021038293839e-02</internalNodes>
          <leafValues>
            -9.5840997993946075e-02 1.8812650442123413e-01</leafValues></_>
        <_>
          <internalNodes>
            0 -1 851 -1.1836671037599444e-03</internalNodes>
          <leafValues>
            -2.2623059153556824e-01 8.4846101701259613e-02</leafValues></_>
        <_>
          <internalNodes>
            0 -1 184 3.1887660734355450e-03</internalNodes>
          <leafValues>
            -8.8322617113590240e-02 2.1969573199748993e-01</leafValues></_>
        <_>
          <internalNodes>
            0 -1 224 -2.4204286746680737e-03</internalNodes>
          <leafValues>
            1.6924259066581726e-01 -1.0822924971580505e-01</leafValues></_>
        <_>
          <internalNodes>
            0 -1 737 2.6243869215250015e-03</internalNodes>
          <leafValues>
            6.3608311116695404e-02 -3.0048993229866028e-01</leafValues></_>
        <_>
          <internalNodes>
            0 -1 590 4.9866776680573821e-04</internalNodes>
          <leafValues>
            -1.2105258554220200e-01 1.5047408640384674e-01</leafValues></_>
        <_>
          <internalNodes>
            0 -1 341 4.5227324590086937e-03</internalNodes>
          <leafValues>
            2.4517547339200974e-02 -7.8955477476119995e-01</leafValues></_>
        <_>
          <internalNodes>
            0 -1 85 1.0215559974312782e-02</internalNodes>
          <leafValues>
            -9.2058077454566956e-02 1.8857568502426147e-01</leafValues></_>
        <_>
          <internalNodes>
            0 -1 845 -4.5355763286352158e-03</internalNodes>
          <leafValues>
            -4.3345859646797180e-01 3.9455167949199677e-02</leafValues></_>
        <_>
          <internalNodes>
            0 -1 621 -1.2706163339316845e-02</internalNodes>
          <leafValues>
            2.5037279725074768e-01 -7.1382418274879456e-02</leafValues></_>
        <_>
          <internalNodes>
            0 -1 445 4.7364868223667145e-02</internalNodes>
          <leafValues>
            7.2076335549354553e-02 -2.9924362897872925e-01</leafValues></_>
        <_>
          <internalNodes>
            0 -1 478 1.9241075962781906e-02</internalNodes>
          <leafValues>
            -6.6966034471988678e-02 3.1297934055328369e-01</leafValues></_>
        <_>
          <internalNodes>
            0 -1 779 3.8884915411472321e-03</internalNodes>
          <leafValues>
            3.3383607864379883e-02 -5.6825298070907593e-01</leafValues></_>
        <_>
          <internalNodes>
            0 -1 473 9.8658388014882803e-04</internalNodes>
          <leafValues>
            9.3644835054874420e-02 -1.8357479572296143e-01</leafValues></_>
        <_>
          <internalNodes>
            0 -1 368 1.2618165463209152e-02</internalNodes>
          <leafValues>
            -5.4021686315536499e-02 3.3121395111083984e-01</leafValues></_>
        <_>
          <internalNodes>
            0 -1 482 -7.0113281253725290e-04</internalNodes>
          <leafValues>
            1.7103642225265503e-01 -1.2916308641433716e-01</leafValues></_>
        <_>
          <internalNodes>
            0 -1 585 1.9661998376250267e-03</internalNodes>
          <leafValues>
            -1.0896090418100357e-01 1.5858682990074158e-01</leafValues></_>
        <_>
          <internalNodes>
            0 -1 684 1.8069876823574305e-03</internalNodes>
          <leafValues>
            -7.9778820276260376e-02 2.4518238008022308e-01</leafValues></_>
        <_>
          <internalNodes>
            0 -1 523 8.7622702121734619e-03</internalNodes>
          <leafValues>
            4.8111744225025177e-02 -3.9899963140487671e-01</leafValues></_>
        <_>
          <internalNodes>
            0 -1 119 -1.0007839649915695e-02</internalNodes>
          <leafValues>
            2.9214966297149658e-01 -6.5126419067382812e-02</leafValues></_>
        <_>
          <internalNodes>
            0 -1 539 -1.0594690218567848e-02</internalNodes>
          <leafValues>
            -4.1987380385398865e-01 4.5479699969291687e-02</leafValues></_>
        <_>
          <internalNodes>
            0 -1 166 -2.8488272801041603e-03</internalNodes>
          <leafValues>
            -3.8312512636184692e-01 4.0349021553993225e-02</leafValues></_>
        <_>
          <internalNodes>
            0 -1 116 1.3679340481758118e-03</internalNodes>
          <leafValues>
            9.0407498180866241e-02 -2.0037043094635010e-01</leafValues></_>
        <_>
          <internalNodes>
            0 -1 123 -1.2419226113706827e-03</internalNodes>
          <leafValues>
            1.5688258409500122e-01 -1.1108015477657318e-01</leafValues></_>
        <_>
          <internalNodes>
            0 -1 183 -1.7168882768601179e-03</internalNodes>
          <leafValues>
            1.7665402591228485e-01 -1.0248069465160370e-01</leafValues></_>
        <_>
          <internalNodes>
            0 -1 186 4.8593215644359589e-02</internalNodes>
          <leafValues>
            -3.5773340612649918e-02 4.6049085259437561e-01</leafValues></_>
        <_>
          <internalNodes>
            0 -1 140 2.2545410320162773e-02</internalNodes>
          <leafValues>
            -2.2056860849261284e-02 7.1051049232482910e-01</leafValues></_>
        <_>
          <internalNodes>
            0 -1 200 -1.4780055731534958e-02</internalNodes>
          <leafValues>
            4.1641703248023987e-01 -4.0356520563364029e-02</leafValues></_></weakClassifiers></_>
    <!-- stage 5 -->
    <_>
      <maxWeakCount>82</maxWeakCount>
      <stageThreshold>-5.6428843736648560e-01</stageThreshold>
      <weakClassifiers>
        <_>
          <internalNodes>
            0 -1 175 -5.1968526095151901e-03</internalNodes>
          <leafValues>
            5.2460986375808716e-01 2.4799142777919769e-01</leafValues></_>
        <_>
          <internalNodes>
            0 -1 665 8.4626646712422371e-03</internalNodes>
          <leafValues>
            -5.5389177054166794e-02 2.8565046191215515e-01</leafValues></_>
        <_>
          <internalNodes>
            0 -1 789 1.7877405043691397e-03</internalNodes>
          <leafValues>
            -1.3685315847396851e-01 1.6805048286914825e-01</leafValues></_>
        <_>
          <internalNodes>
            0 -1 605 1.7549524782225490e-03</internalNodes>
          <leafValues>
            -1.1551017314195633e-01 1.6425636410713196e-01</leafValues></_>
        <_>
          <internalNodes>
            0 -1 662 -3.7169763818383217e-03</internalNodes>
          <leafValues>
            -4.7933050990104675e-01 4.6171631664037704e-02</leafValues></_>
        <_>
          <internalNodes>
            0 -1 466 -1.1098528048023582e-03</internalNodes>
          <leafValues>
            1.7267693579196930e-01 -1.1589587479829788e-01</leafValues></_>
        <_>
          <internalNodes>
            0 -1 108 -6.4566789660602808e-04</internalNodes>
          <leafValues>
            1.8685817718505859e-01 -1.0669844597578049e-01</leafValues></_>
        <_>
          <internalNodes>
            0 -1 162 8.7599776685237885e-02</internalNodes>
          <leafValues>
            -3.0253414064645767e-02 6.0874205827713013e-01</leafValues></_>
        <_>
          <internalNodes>
            0 -1 721 -3.8943989202380180e-03</internalNodes>
          <leafValues>
            1.8584929406642914e-01 -9.9450185894966125e-02</leafValues></_>
        <_>
          <internalNodes>
            0 -1 514 5.2711065858602524e-02</internalNodes>
          <leafValues>
            3.7774413824081421e-02 -6.1702483892440796e-01</leafValues></_>
        <_>
          <internalNodes>
            0 -1 632 3.1098220497369766e-03</internalNodes>
          <leafValues>
            4.9749605357646942e-02 -3.6957669258117676e-01</leafValues></_>
        <_>
          <internalNodes>
            0 -1 731 -1.7238941509276628e-03</internalNodes>
          <leafValues>
            1.9337546825408936e-01 -9.5049127936363220e-02</leafValues></_>
        <_>
          <internalNodes>
            0 -1 731 1.3983118114992976e-03</internalNodes>
          <leafValues>
            -9.7923874855041504e-02 2.1070832014083862e-01</leafValues></_>
        <_>
          <internalNodes>
            0 -1 838 4.0698930388316512e-04</internalNodes>
          <leafValues>
            -1.0863966494798660e-01 1.6430582106113434e-01</leafValues></_>
        <_>
          <internalNodes>
            0 -1 163 -2.4799103848636150e-03</internalNodes>
          <leafValues>
            2.1061582863330841e-01 -8.7140157818794250e-02</leafValues></_>
        <_>
          <internalNodes>
            0 -1 472 8.6253676563501358e-03</internalNodes>
          <leafValues>
            2.9591500759124756e-02 -5.5792742967605591e-01</leafValues></_>
        <_>
          <internalNodes>
            0 -1 159 1.3230052590370178e-01</internalNodes>
          <leafValues>
            2.5065543130040169e-02 -6.9197332859039307e-01</leafValues></_>
        <_>
          <internalNodes>
            0 -1 828 -6.3328753458335996e-04</internalNodes>
          <leafValues>
            1.6148088872432709e-01 -1.0620921105146408e-01</leafValues></_>
        <_>
          <internalNodes>
            0 -1 733 -7.3394943028688431e-03</internalNodes>
          <leafValues>
            -5.7089334726333618e-01 2.9881656169891357e-02</leafValues></_>
        <_>
          <internalNodes>
            0 -1 135 -2.3931056261062622e-02</internalNodes>
          <leafValues>
            3.8773044943809509e-01 -4.6965289860963821e-02</leafValues></_>
        <_>
          <internalNodes>
            0 -1 365 4.1934121400117874e-03</internalNodes>
          <leafValues>
            5.9705615043640137e-02 -3.3662134408950806e-01</leafValues></_>
        <_>
          <internalNodes>
            0 -1 68 -2.2222013212740421e-03</internalNodes>
          <leafValues>
            1.7338322103023529e-01 -1.1658629029989243e-01</leafValues></_>
        <_>
          <internalNodes>
            0 -1 443 2.3157142102718353e-02</internalNodes>
          <leafValues>
            3.6215104162693024e-02 -5.0181120634078979e-01</leafValues></_>
        <_>
          <internalNodes>
            0 -1 261 6.6781003260985017e-04</internalNodes>
          <leafValues>
            -9.9332340061664581e-02 1.8936838209629059e-01</leafValues></_>
        <_>
          <internalNodes>
            0 -1 537 -8.3665037527680397e-04</internalNodes>
          <leafValues>
            2.0919415354728699e-01 -9.6582986414432526e-02</leafValues></_>
        <_>
          <internalNodes>
            0 -1 767 5.9665553271770477e-04</internalNodes>
          <leafValues>
            -1.1527696251869202e-01 1.7610459029674530e-01</leafValues></_>
        <_>
          <internalNodes>
            0 -1 537 -4.8019816167652607e-03</internalNodes>
          <leafValues>
            -7.0805943012237549e-01 3.0727952718734741e-02</leafValues></_>
        <_>
          <internalNodes>
            0 -1 808 -3.5563767887651920e-03</internalNodes>
          <leafValues>
            1.7289321124553680e-01 -1.0494134575128555e-01</leafValues></_>
        <_>
          <internalNodes>
            0 -1 836 2.0228084176778793e-03</internalNodes>
          <leafValues>
            -8.7364993989467621e-02 2.3785787820816040e-01</leafValues></_>
        <_>
          <internalNodes>
            0 -1 270 -2.3581909481436014e-03</internalNodes>
          <leafValues>
            2.2553326189517975e-01 -7.9135403037071228e-02</leafValues></_>
        <_>
          <internalNodes>
            0 -1 630 -2.1725546102970839e-03</internalNodes>
          <leafValues>
            1.6750717163085938e-01 -1.1183941364288330e-01</leafValues></_>
        <_>
          <internalNodes>
            0 -1 203 4.9266841262578964e-02</internalNodes>
          <leafValues>
            -5.9537868946790695e-02 3.0119279026985168e-01</leafValues></_>
        <_>
          <internalNodes>
            0 -1 248 4.3386258184909821e-02</internalNodes>
          <leafValues>
            5.9766445308923721e-02 -3.5828226804733276e-01</leafValues></_>
        <_>
          <internalNodes>
            0 -1 45 -9.0759202837944031e-02</internalNodes>
          <leafValues>
            -7.0924466848373413e-01 2.4814078584313393e-02</leafValues></_>
        <_>
          <internalNodes>
            0 -1 153 2.6061266660690308e-02</internalNodes>
          <leafValues>
            5.0823681056499481e-02 -3.2254484295845032e-01</leafValues></_>
        <_>
          <internalNodes>
            0 -1 720 -1.8764315173029900e-02</internalNodes>
          <leafValues>
            -5.9603583812713623e-01 2.8653629124164581e-02</leafValues></_>
        <_>
          <internalNodes>
            0 -1 551 4.1853180155158043e-03</internalNodes>
          <leafValues>
            -8.0432429909706116e-02 2.4507121741771698e-01</leafValues></_>
        <_>
          <internalNodes>
            0 -1 244 -4.4133677147328854e-04</internalNodes>
          <leafValues>
            1.5621359646320343e-01 -1.0397890955209732e-01</leafValues></_>
        <_>
          <internalNodes>
            0 -1 126 2.0332434214651585e-03</internalNodes>
          <leafValues>
            6.2017276883125305e-02 -2.8435686230659485e-01</leafValues></_>
        <_>
          <internalNodes>
            0 -1 382 -3.7001282908022404e-04</internalNodes>
          <leafValues>
            1.3491533696651459e-01 -1.2985689938068390e-01</leafValues></_>
        <_>
          <internalNodes>
            0 -1 298 4.3395184911787510e-03</internalNodes>
          <leafValues>
            4.4581290334463120e-02 -4.3896979093551636e-01</leafValues></_>
        <_>
          <internalNodes>
            0 -1 338 1.5074857510626316e-03</internalNodes>
          <leafValues>
            -7.5896456837654114e-02 2.3245981335639954e-01</leafValues></_>
        <_>
          <internalNodes>
            0 -1 459 1.9909427501261234e-03</internalNodes>
          <leafValues>
            -9.8054178059101105e-02 1.6878473758697510e-01</leafValues></_>
        <_>
          <internalNodes>
            0 -1 681 -3.5537802614271641e-03</internalNodes>
          <leafValues>
            -5.2371823787689209e-01 3.4741997718811035e-02</leafValues></_>
        <_>
          <internalNodes>
            0 -1 571 -3.6556194536387920e-03</internalNodes>
          <leafValues>
            2.1464516222476959e-01 -8.7610706686973572e-02</leafValues></_>
        <_>
          <internalNodes>
            0 -1 678 4.8205326311290264e-03</internalNodes>
          <leafValues>
            3.6614865064620972e-02 -4.9087056517601013e-01</leafValues></_>
        <_>
          <internalNodes>
            0 -1 310 -5.9619953390210867e-04</internalNodes>
          <leafValues>
            1.4265125989913940e-01 -1.2507107853889465e-01</leafValues></_>
        <_>
          <internalNodes>
            0 -1 639 5.3890992421656847e-04</internalNodes>
          <leafValues>
            -1.0158618539571762e-01 1.7470477521419525e-01</leafValues></_>
        <_>
          <internalNodes>
            0 -1 575 -6.4646983519196510e-03</internalNodes>
          <leafValues>
            -7.8516674041748047e-01 2.4830786511301994e-02</leafValues></_>
        <_>
          <internalNodes>
            0 -1 303 9.6185142174363136e-03</internalNodes>
          <leafValues>
            -6.2880486249923706e-02 2.7083852887153625e-01</leafValues></_>
        <_>
          <internalNodes>
            0 -1 205 -4.5662163756787777e-03</internalNodes>
          <leafValues>
            1.8847031891345978e-01 -9.5326073467731476e-02</leafValues></_>
        <_>
          <internalNodes>
            0 -1 396 -4.4454532326199114e-04</internalNodes>
          <leafValues>
            1.5371544659137726e-01 -1.0075762867927551e-01</leafValues></_>
        <_>
          <internalNodes>
            0 -1 332 5.4960971465334296e-04</internalNodes>
          <leafValues>
            -8.3810083568096161e-02 1.9709905982017517e-01</leafValues></_>
        <_>
          <internalNodes>
            0 -1 286 -6.3668622169643641e-04</internalNodes>
          <leafValues>
            1.8330755829811096e-01 -9.4004392623901367e-02</leafValues></_>
        <_>
          <internalNodes>
            0 -1 513 -1.0381793603301048e-02</internalNodes>
          <leafValues>
            -4.9770280718803406e-01 3.3912219107151031e-02</leafValues></_>
        <_>
          <internalNodes>
            0 -1 75 -3.7359285634011030e-03</internalNodes>
          <leafValues>
            -3.9295533299446106e-01 3.7647414952516556e-02</leafValues></_>
        <_>
          <internalNodes>
            0 -1 511 2.2476231679320335e-03</internalNodes>
          <leafValues>
            -6.5213210880756378e-02 2.5637376308441162e-01</leafValues></_>
        <_>
          <internalNodes>
            0 -1 326 -9.7089924383908510e-04</internalNodes>
          <leafValues>
            1.7246294021606445e-01 -9.9313408136367798e-02</leafValues></_>
        <_>
          <internalNodes>
            0 -1 726 9.3241641297936440e-04</internalNodes>
          <leafValues>
            -1.0188714414834976e-01 1.7099028825759888e-01</leafValues></_>
        <_>
          <internalNodes>
            0 -1 210 -5.8758683502674103e-02</internalNodes>
          <leafValues>
            -5.1071584224700928e-01 3.6756101995706558e-02</leafValues></_>
        <_>
          <internalNodes>
            0 -1 398 5.1862791180610657e-02</internalNodes>
          <leafValues>
            3.3684290945529938e-02 -4.9268186092376709e-01</leafValues></_>
        <_>
          <internalNodes>
            0 -1 232 1.5764594078063965e-02</internalNodes>
          <leafValues>
            5.3482025861740112e-02 -3.1522095203399658e-01</leafValues></_>
        <_>
          <internalNodes>
            0 -1 624 -5.2639292553067207e-03</internalNodes>
          <leafValues>
            -5.3628128767013550e-01 3.3827152103185654e-02</leafValues></_>
        <_>
          <internalNodes>
            0 -1 90 -7.0567411603406072e-04</internalNodes>
          <leafValues>
            1.8221008777618408e-01 -9.6143744885921478e-02</leafValues></_>
        <_>
          <internalNodes>
            0 -1 84 2.8436430729925632e-03</internalNodes>
          <leafValues>
            -1.1033296585083008e-01 2.1979686617851257e-01</leafValues></_>
        <_>
          <internalNodes>
            0 -1 237 -1.5621021389961243e-01</internalNodes>
          <leafValues>
            -4.2424622178077698e-01 4.0784433484077454e-02</leafValues></_>
        <_>
          <internalNodes>
            0 -1 652 6.8904263898730278e-03</internalNodes>
          <leafValues>
            2.7653571218252182e-02 -5.5997407436370850e-01</leafValues></_>
        <_>
          <internalNodes>
            0 -1 712 -1.2107475195080042e-03</internalNodes>
          <leafValues>
            1.5266562998294830e-01 -1.2099280208349228e-01</leafValues></_>
        <_>
          <internalNodes>
            0 -1 829 -1.7417028546333313e-02</internalNodes>
          <leafValues>
            -6.4353799819946289e-01 2.4967392906546593e-02</leafValues></_>
        <_>
          <internalNodes>
            0 -1 719 3.6091355141252279e-03</internalNodes>
          <leafValues>
            3.3600531518459320e-02 -4.4857490062713623e-01</leafValues></_>
        <_>
          <internalNodes>
            0 -1 728 1.2476420961320400e-03</internalNodes>
          <leafValues>
            -6.9553323090076447e-02 2.4852488934993744e-01</leafValues></_>
        <_>
          <internalNodes>
            0 -1 622 -8.6791906505823135e-03</internalNodes>
          <leafValues>
            2.4326680600643158e-01 -8.1599637866020203e-02</leafValues></_>
        <_>
          <internalNodes>
            0 -1 718 -9.6829608082771301e-04</internalNodes>
          <leafValues>
            1.5836611390113831e-01 -9.9194385111331940e-02</leafValues></_>
        <_>
          <internalNodes>
            0 -1 488 -5.2418652921915054e-04</internalNodes>
          <leafValues>
            1.4982980489730835e-01 -1.0997987538576126e-01</leafValues></_>
        <_>
          <internalNodes>
            0 -1 150 1.4496771618723869e-02</internalNodes>
          <leafValues>
            3.7518884986639023e-02 -4.4005364179611206e-01</leafValues></_>
        <_>
          <internalNodes>
            0 -1 668 3.1443312764167786e-02</internalNodes>
          <leafValues>
            -6.2978699803352356e-02 2.7588716149330139e-01</leafValues></_>
        <_>
          <internalNodes>
            0 -1 262 -6.8974017631262541e-04</internalNodes>
          <leafValues>
            1.5285791456699371e-01 -1.1059480160474777e-01</leafValues></_>
        <_>
          <internalNodes>
            0 -1 717 -5.3975041955709457e-03</internalNodes>
          <leafValues>
            -7.7885532379150391e-01 2.2585738450288773e-02</leafValues></_>
        <_>
          <internalNodes>
            0 -1 181 1.9763793796300888e-02</internalNodes>
          <leafValues>
            2.3130102083086967e-02 -6.8533694744110107e-01</leafValues></_>
        <_>
          <internalNodes>
            0 -1 426 -5.1377597264945507e-03</internalNodes>
          <leafValues>
            2.5434580445289612e-01 -7.5172744691371918e-02</leafValues></_>
        <_>
          <internalNodes>
            0 -1 435 -2.0949321333318949e-03</internalNodes>
          <leafValues>
            2.0137394964694977e-01 -8.4647297859191895e-02</leafValues></_>
        <_>
          <internalNodes>
            0 -1 180 -9.1251917183399200e-03</internalNodes>
          <leafValues>
            1.9195893406867981e-01 -8.8686987757682800e-02</leafValues></_></weakClassifiers></_>
    <!-- stage 6 -->
    <_>
      <maxWeakCount>91</maxWeakCount>
      <stageThreshold>-5.7096785306930542e-01</stageThreshold>
      <weakClassifiers>
        <_>
          <internalNodes>
            0 -1 447 -6.3137956894934177e-03</internalNodes>
          <leafValues>
            -2.8846153616905212e-01 3.5824346542358398e-01</leafValues></_>
        <_>
          <internalNodes>
            0 -1 368 -8.9410375803709030e-03</internalNodes>
          <leafValues>
            2.4605780839920044e-01 -5.8765117079019547e-02</leafValues></_>
        <_>
          <internalNodes>
            0 -1 695 3.4884843043982983e-03</internalNodes>
          <leafValues>
            -9.7239241003990173e-02 1.7609375715255737e-01</leafValues></_>
        <_>
          <internalNodes>
            0 -1 704 2.3572660982608795e-02</internalNodes>
          <leafValues>
            -8.6463093757629395e-02 3.5266315937042236e-01</leafValues></_>
        <_>
          <internalNodes>
            0 -1 714 -8.1260856240987778e-03</internalNodes>
          <leafValues>
            -4.4571799039840698e-01 6.4366072416305542e-02</leafValues></_>
        <_>
          <internalNodes>
            0 -1 406 1.7096478492021561e-02</internalNodes>
          <leafValues>
            3.5974185913801193e-02 -5.6345373392105103e-01</leafValues></_>
        <_>
          <internalNodes>
            0 -1 33 -8.5261557251214981e-03</internalNodes>
          <leafValues>
            2.4183401465415955e-01 -1.1389901489019394e-01</leafValues></_>
        <_>
          <internalNodes>
            0 -1 702 -2.3470055311918259e-03</internalNodes>
          <leafValues>
            1.9616691768169403e-01 -8.9409530162811279e-02</leafValues></_>
        <_>
          <internalNodes>
            0 -1 83 -3.8632452487945557e-03</internalNodes>
          <leafValues>
            1.9413846731185913e-01 -9.4448104500770569e-02</leafValues></_>
        <_>
          <internalNodes>
            0 -1 76 2.1591383847407997e-04</internalNodes>
          <leafValues>
            -1.3585671782493591e-01 1.2267346680164337e-01</leafValues></_>
        <_>
          <internalNodes>
            0 -1 267 -3.5864813253283501e-03</internalNodes>
          <leafValues>
            -3.3238473534584045e-01 5.2396271377801895e-02</leafValues></_>
        <_>
          <internalNodes>
            0 -1 165 4.7455886378884315e-03</internalNodes>
          <leafValues>
            -6.7595146596431732e-02 2.4089883267879486e-01</leafValues></_>
        <_>
          <internalNodes>
            0 -1 826 -4.8906425945460796e-03</internalNodes>
          <leafValues>
            -6.2665188312530518e-01 2.6326060295104980e-02</leafValues></_>
        <_>
          <internalNodes>
            0 -1 559 -4.5294309966266155e-03</internalNodes>
          <leafValues>
            3.0698734521865845e-01 -5.1263526082038879e-02</leafValues></_>
        <_>
          <internalNodes>
            0 -1 185 -4.7069955617189407e-03</internalNodes>
          <leafValues>
            1.6245394945144653e-01 -9.5308378338813782e-02</leafValues></_>
        <_>
          <internalNodes>
            0 -1 701 3.4404867328703403e-03</internalNodes>
          <leafValues>
            5.1101796329021454e-02 -3.1428661942481995e-01</leafValues></_>
        <_>
          <internalNodes>
            0 -1 815 -4.0980149060487747e-03</internalNodes>
          <leafValues>
            -4.1174915432929993e-01 4.2282093316316605e-02</leafValues></_>
        <_>
          <internalNodes>
            0 -1 541 -4.2601469904184341e-03</internalNodes>
          <leafValues>
            -5.9685099124908447e-01 2.5881234556436539e-02</leafValues></_>
        <_>
          <internalNodes>
            0 -1 181 3.5434009041637182e-03</internalNodes>
          <leafValues>
            -9.0340122580528259e-02 1.7565210163593292e-01</leafValues></_>
        <_>
          <internalNodes>
            0 -1 174 4.2477007955312729e-03</internalNodes>
          <leafValues>
            -8.2704171538352966e-02 1.9950306415557861e-01</leafValues></_>
        <_>
          <internalNodes>
            0 -1 434 3.5692236269824207e-04</internalNodes>
          <leafValues>
            -1.0069029033184052e-01 1.7241199314594269e-01</leafValues></_>
        <_>
          <internalNodes>
            0 -1 194 7.8991276677697897e-04</internalNodes>
          <leafValues>
            -9.9828243255615234e-02 1.5299537777900696e-01</leafValues></_>
        <_>
          <internalNodes>
            0 -1 28 -7.9223727807402611e-03</internalNodes>
          <leafValues>
            -6.5065985918045044e-01 2.1500805392861366e-02</leafValues></_>
        <_>
          <internalNodes>
            0 -1 631 2.0808116532862186e-03</internalNodes>
          <leafValues>
            4.7021552920341492e-02 -3.4345415234565735e-01</leafValues></_>
        <_>
          <internalNodes>
            0 -1 609 3.2559671672061086e-04</internalNodes>
          <leafValues>
            -1.1149296909570694e-01 1.5927675366401672e-01</leafValues></_>
        <_>
          <internalNodes>
            0 -1 594 1.3583977706730366e-02</internalNodes>
          <leafValues>
            -6.2559731304645538e-02 3.5277700424194336e-01</leafValues></_>
        <_>
          <internalNodes>
            0 -1 505 6.6186487674713135e-02</internalNodes>
          <leafValues>
            5.6898560374975204e-02 -3.6309361457824707e-01</leafValues></_>
        <_>
          <internalNodes>
            0 -1 48 5.9195853769779205e-02</internalNodes>
          <leafValues>
            -3.1743451952934265e-02 5.7235038280487061e-01</leafValues></_>
        <_>
          <internalNodes>
            0 -1 843 5.2685947157442570e-03</internalNodes>
          <leafValues>
            -5.6654140353202820e-02 2.6021069288253784e-01</leafValues></_>
        <_>
          <internalNodes>
            0 -1 599 3.7535647861659527e-03</internalNodes>
          <leafValues>
            2.7452832087874413e-02 -5.1885443925857544e-01</leafValues></_>
        <_>
          <internalNodes>
            0 -1 803 6.7759856581687927e-02</internalNodes>
          <leafValues>
            -1.7404971644282341e-02 8.7296080589294434e-01</leafValues></_>
        <_>
          <internalNodes>
            0 -1 432 -1.0698939440771937e-03</internalNodes>
          <leafValues>
            1.3573569059371948e-01 -1.0324510931968689e-01</leafValues></_>
        <_>
          <internalNodes>
            0 -1 458 8.2114723045378923e-04</internalNodes>
          <leafValues>
            -9.4605460762977600e-02 1.5105867385864258e-01</leafValues></_>
        <_>
          <internalNodes>
            0 -1 644 -1.4627422206103802e-03</internalNodes>
          <leafValues>
            1.5837185084819794e-01 -9.3524560332298279e-02</leafValues></_>
        <_>
          <internalNodes>
            0 -1 565 -5.5341427214443684e-03</internalNodes>
          <leafValues>
            -8.1045293807983398e-01 2.0787129178643227e-02</leafValues></_>
        <_>
          <internalNodes>
            0 -1 63 3.4310542047023773e-02</internalNodes>
          <leafValues>
            1.9555652514100075e-02 -6.5483045578002930e-01</leafValues></_>
        <_>
          <internalNodes>
            0 -1 810 -5.1849558949470520e-03</internalNodes>
          <leafValues>
            -4.7993168234825134e-01 2.8143066912889481e-02</leafValues></_>
        <_>
          <internalNodes>
            0 -1 679 -6.9704395718872547e-03</internalNodes>
          <leafValues>
            2.0943081378936768e-01 -7.5812213122844696e-02</leafValues></_>
        <_>
          <internalNodes>
            0 -1 793 -1.2007942423224449e-02</internalNodes>
          <leafValues>
            2.5234535336494446e-01 -6.1715610325336456e-02</leafValues></_>
        <_>
          <internalNodes>
            0 -1 759 3.0485528986901045e-03</internalNodes>
          <leafValues>
            3.2821286469697952e-02 -4.8295697569847107e-01</leafValues></_>
        <_>
          <internalNodes>
            0 -1 444 -2.6906438171863556e-02</internalNodes>
          <leafValues>
            4.0669578313827515e-01 -3.9603829383850098e-02</leafValues></_>
        <_>
          <internalNodes>
            0 -1 849 -2.9272073879837990e-03</internalNodes>
          <leafValues>
            -1.8305583298206329e-01 8.1841364502906799e-02</leafValues></_>
        <_>
          <internalNodes>
            0 -1 804 -1.3133941683918238e-03</internalNodes>
          <leafValues>
            -2.4856849014759064e-01 6.4495816826820374e-02</leafValues></_>
        <_>
          <internalNodes>
            0 -1 347 -4.1954798507504165e-04</internalNodes>
          <leafValues>
            1.5411584079265594e-01 -1.0184405744075775e-01</leafValues></_>
        <_>
          <internalNodes>
            0 -1 347 3.0308117857202888e-04</internalNodes>
          <leafValues>
            -1.0646317154169083e-01 1.4637386798858643e-01</leafValues></_>
        <_>
          <internalNodes>
            0 -1 269 3.9656311273574829e-03</internalNodes>
          <leafValues>
            4.4804971665143967e-02 -3.5317316651344299e-01</leafValues></_>
        <_>
          <internalNodes>
            0 -1 32 -6.1021320521831512e-02</internalNodes>
          <leafValues>
            4.3675136566162109e-01 -3.7120260298252106e-02</leafValues></_>
        <_>
          <internalNodes>
            0 -1 521 -4.0096482262015343e-03</internalNodes>
          <leafValues>
            -3.1363713741302490e-01 5.0363156944513321e-02</leafValues></_>
        <_>
          <internalNodes>
            0 -1 470 -6.2385029159486294e-03</internalNodes>
          <leafValues>
            -3.3097314834594727e-01 4.2944990098476410e-02</leafValues></_>
        <_>
          <internalNodes>
            0 -1 627 4.3577067553997040e-03</internalNodes>
          <leafValues>
            -7.4950963258743286e-02 2.3484459519386292e-01</leafValues></_>
        <_>
          <internalNodes>
            0 -1 233 -3.0655972659587860e-02</internalNodes>
          <leafValues>
            -1.4064253866672516e-01 1.1662961542606354e-01</leafValues></_>
        <_>
          <internalNodes>
            0 -1 499 -2.0206663757562637e-02</internalNodes>
          <leafValues>
            3.1474986672401428e-01 -5.3803488612174988e-02</leafValues></_>
        <_>
          <internalNodes>
            0 -1 631 -4.2278105393052101e-03</internalNodes>
          <leafValues>
            -6.4399051666259766e-01 2.5213997811079025e-02</leafValues></_>
        <_>
          <internalNodes>
            0 -1 256 5.6404122151434422e-03</internalNodes>
          <leafValues>
            -6.3583329319953918e-02 2.4127408862113953e-01</leafValues></_>
        <_>
          <internalNodes>
            0 -1 265 -1.7367581604048610e-03</internalNodes>
          <leafValues>
            1.7010857164859772e-01 -9.8421499133110046e-02</leafValues></_>
        <_>
          <internalNodes>
            0 -1 834 5.1909778267145157e-04</internalNodes>
          <leafValues>
            9.3886375427246094e-02 -1.6097503900527954e-01</leafValues></_>
        <_>
          <internalNodes>
            0 -1 21 3.6268137395381927e-02</internalNodes>
          <leafValues>
            -2.8098037466406822e-02 5.1639026403427124e-01</leafValues></_>
        <_>
          <internalNodes>
            0 -1 757 -5.4105088114738464e-02</internalNodes>
          <leafValues>
            6.0210525989532471e-01 -2.0467579364776611e-02</leafValues></_>
        <_>
          <internalNodes>
            0 -1 780 -1.4802085235714912e-02</internalNodes>
          <leafValues>
            2.9697701334953308e-01 -4.3700203299522400e-02</leafValues></_>
        <_>
          <internalNodes>
            0 -1 542 -5.3854808211326599e-03</internalNodes>
          <leafValues>
            -1.6118006408214569e-01 8.9509725570678711e-02</leafValues></_>
        <_>
          <internalNodes>
            0 -1 746 -2.3250370286405087e-03</internalNodes>
          <leafValues>
            -3.3682242035865784e-01 4.1294187307357788e-02</leafValues></_>
        <_>
          <internalNodes>
            0 -1 694 -6.4701349474489689e-03</internalNodes>
          <leafValues>
            2.1994768083095551e-01 -7.9632878303527832e-02</leafValues></_>
        <_>
          <internalNodes>
            0 -1 358 2.5173081085085869e-03</internalNodes>
          <leafValues>
            -9.1554813086986542e-02 1.7991007864475250e-01</leafValues></_>
        <_>
          <internalNodes>
            0 -1 706 1.8867771141231060e-03</internalNodes>
          <leafValues>
            -7.3840335011482239e-02 1.8688726425170898e-01</leafValues></_>
        <_>
          <internalNodes>
            0 -1 750 -6.2860384583473206e-02</internalNodes>
          <leafValues>
            4.3387526273727417e-01 -3.3861603587865829e-02</leafValues></_>
        <_>
          <internalNodes>
            0 -1 848 -1.1722046881914139e-02</internalNodes>
          <leafValues>
            -7.3065620660781860e-01 2.2231183946132660e-02</leafValues></_>
        <_>
          <internalNodes>
            0 -1 297 -9.0641707181930542e-02</internalNodes>
          <leafValues>
            -4.2251569032669067e-01 3.3269904553890228e-02</leafValues></_>
        <_>
          <internalNodes>
            0 -1 234 5.0799243152141571e-02</internalNodes>
          <leafValues>
            -3.7551473826169968e-02 4.0827146172523499e-01</leafValues></_>
        <_>
          <internalNodes>
            0 -1 129 2.9796606395393610e-03</internalNodes>
          <leafValues>
            -1.1041597276926041e-01 1.4793957769870758e-01</leafValues></_>
        <_>
          <internalNodes>
            0 -1 139 -3.2833567820489407e-03</internalNodes>
          <leafValues>
            -1.7083619534969330e-01 9.5373578369617462e-02</leafValues></_>
        <_>
          <internalNodes>
            0 -1 707 4.9544074572622776e-03</internalNodes>
          <leafValues>
            3.6426987498998642e-02 -4.2023181915283203e-01</leafValues></_>
        <_>
          <internalNodes>
            0 -1 566 1.1090827174484730e-03</internalNodes>
          <leafValues>
            -1.3093566894531250e-01 1.2710031867027283e-01</leafValues></_>
        <_>
          <internalNodes>
            0 -1 390 2.7081871405243874e-02</internalNodes>
          <leafValues>
            9.0846590697765350e-02 -1.8830041587352753e-01</leafValues></_>
        <_>
          <internalNodes>
            0 -1 455 2.8535211458802223e-03</internalNodes>
          <leafValues>
            -9.6027135848999023e-02 1.7937263846397400e-01</leafValues></_>
        <_>
          <internalNodes>
            0 -1 455 2.0372193306684494e-02</internalNodes>
          <leafValues>
            2.1893743425607681e-02 -8.5290479660034180e-01</leafValues></_>
        <_>
          <internalNodes>
            0 -1 785 -3.5846605896949768e-02</internalNodes>
          <leafValues>
            6.2221288681030273e-01 -3.0911037698388100e-02</leafValues></_>
        <_>
          <internalNodes>
            0 -1 508 6.1318068765103817e-04</internalNodes>
          <leafValues>
            -1.1612334847450256e-01 1.3046038150787354e-01</leafValues></_>
        <_>
          <internalNodes>
            0 -1 243 -4.1635977104306221e-03</internalNodes>
          <leafValues>
            1.6173166036605835e-01 -9.6167720854282379e-02</leafValues></_>
        <_>
          <internalNodes>
            0 -1 553 1.1245857924222946e-02</internalNodes>
          <leafValues>
            -3.0181843787431717e-02 5.1779139041900635e-01</leafValues></_>
        <_>
          <internalNodes>
            0 -1 555 3.1210029497742653e-02</internalNodes>
          <leafValues>
            2.0607022568583488e-02 -8.5328555107116699e-01</leafValues></_>
        <_>
          <internalNodes>
            0 -1 564 -1.4755277894437313e-02</internalNodes>
          <leafValues>
            4.6743935346603394e-01 -3.5434626042842865e-02</leafValues></_>
        <_>
          <internalNodes>
            0 -1 685 -3.2430402934551239e-03</internalNodes>
          <leafValues>
            -3.8394612073898315e-01 4.1635245084762573e-02</leafValues></_>
        <_>
          <internalNodes>
            0 -1 516 1.2788588181138039e-02</internalNodes>
          <leafValues>
            2.1502861753106117e-02 -6.3975316286087036e-01</leafValues></_>
        <_>
          <internalNodes>
            0 -1 287 1.1648507788777351e-02</internalNodes>
          <leafValues>
            5.4681088775396347e-02 -2.7198421955108643e-01</leafValues></_>
        <_>
          <internalNodes>
            0 -1 357 -1.0384144261479378e-03</internalNodes>
          <leafValues>
            1.6366036236286163e-01 -9.3593589961528778e-02</leafValues></_>
        <_>
          <internalNodes>
            0 -1 73 -8.2862458657473326e-04</internalNodes>
          <leafValues>
            1.5032322704792023e-01 -9.8055042326450348e-02</leafValues></_>
        <_>
          <internalNodes>
            0 -1 134 -2.6530884206295013e-03</internalNodes>
          <leafValues>
            -3.3741515874862671e-01 5.0383809953927994e-02</leafValues></_>
        <_>
          <internalNodes>
            0 -1 835 1.2686198577284813e-02</internalNodes>
          <leafValues>
            -5.9514723718166351e-02 2.6137769222259521e-01</leafValues></_>
        <_>
          <internalNodes>
            0 -1 79 7.6903970912098885e-03</internalNodes>
          <leafValues>
            3.8412597030401230e-02 -4.3180000782012939e-01</leafValues></_>
        <_>
          <internalNodes>
            0 -1 408 3.4112003631889820e-03</internalNodes>
          <leafValues>
            -8.9594326913356781e-02 1.8963648378849030e-01</leafValues></_>
        <_>
          <internalNodes>
            0 -1 374 4.8606554046273232e-03</internalNodes>
          <leafValues>
            3.6554876714944839e-02 -4.6981525421142578e-01</leafValues></_></weakClassifiers></_>
    <!-- stage 7 -->
    <_>
      <maxWeakCount>93</maxWeakCount>
      <stageThreshold>-5.7532721757888794e-01</stageThreshold>
      <weakClassifiers>
        <_>
          <internalNodes>
            0 -1 595 5.0350967794656754e-03</internalNodes>
          <leafValues>
            2.4898785352706909e-01 5.6353592872619629e-01</leafValues></_>
        <_>
          <internalNodes>
            0 -1 376 -4.2560822330415249e-03</internalNodes>
          <leafValues>
            2.5921821594238281e-01 -5.2006445825099945e-02</leafValues></_>
        <_>
          <internalNodes>
            0 -1 558 -2.9610032215714455e-03</internalNodes>
          <leafValues>
            -4.6493238210678101e-01 1.6319891437888145e-02</leafValues></_>
        <_>
          <internalNodes>
            0 -1 556 7.3936703847721219e-04</internalNodes>
          <leafValues>
            -9.9998533725738525e-02 1.8208193778991699e-01</leafValues></_>
        <_>
          <internalNodes>
            0 -1 593 -3.0497470870614052e-03</internalNodes>
          <leafValues>
            2.3743377625942230e-01 -7.1098715066909790e-02</leafValues></_>
        <_>
          <internalNodes>
            0 -1 301 5.1986225880682468e-03</internalNodes>
          <leafValues>
            -6.8463981151580811e-02 2.2014628350734711e-01</leafValues></_>
        <_>
          <internalNodes>
            0 -1 350 -2.2227778099477291e-03</internalNodes>
          <leafValues>
            2.8059732913970947e-01 -9.5289416611194611e-02</leafValues></_>
        <_>
          <internalNodes>
            0 -1 247 5.3864521905779839e-03</internalNodes>
          <leafValues>
            -8.1408053636550903e-02 2.1131734549999237e-01</leafValues></_>
        <_>
          <internalNodes>
            0 -1 346 -3.0933525413274765e-03</internalNodes>
          <leafValues>
            -2.2809633612632751e-01 8.2032680511474609e-02</leafValues></_>
        <_>
          <internalNodes>
            0 -1 520 6.4595434814691544e-03</internalNodes>
          <leafValues>
            3.4620687365531921e-02 -6.0156142711639404e-01</leafValues></_>
        <_>
          <internalNodes>
            0 -1 703 -9.8542706109583378e-04</internalNodes>
          <leafValues>
            1.2573379278182983e-01 -1.3547249138355255e-01</leafValues></_>
        <_>
          <internalNodes>
            0 -1 383 -9.8650914151221514e-04</internalNodes>
          <leafValues>
            1.3954019546508789e-01 -1.0698278993368149e-01</leafValues></_>
        <_>
          <internalNodes>
            0 -1 546 4.3927272781729698e-03</internalNodes>
          <leafValues>
            7.7306285500526428e-02 -2.0559233427047729e-01</leafValues></_>
        <_>
          <internalNodes>
            0 -1 438 3.7120126187801361e-02</internalNodes>
          <leafValues>
            3.0643338337540627e-02 -5.6082719564437866e-01</leafValues></_>
        <_>
          <internalNodes>
            0 -1 776 9.4819907099008560e-04</internalNodes>
          <leafValues>
            -1.1798245459794998e-01 1.3852895796298981e-01</leafValues></_>
        <_>
          <internalNodes>
            0 -1 354 3.5790095571428537e-03</internalNodes>
          <leafValues>
            -7.6079957187175751e-02 2.0436134934425354e-01</leafValues></_>
        <_>
          <internalNodes>
            0 -1 760 -1.2492537498474121e-03</internalNodes>
          <leafValues>
            1.6064460575580597e-01 -1.0397262871265411e-01</leafValues></_>
        <_>
          <internalNodes>
            0 -1 839 6.1793089844286442e-04</internalNodes>
          <leafValues>
            -1.1943968385457993e-01 1.3502024114131927e-01</leafValues></_>
        <_>
          <internalNodes>
            0 -1 824 -1.3778178021311760e-02</internalNodes>
          <leafValues>
            -5.9675765037536621e-01 2.7657002210617065e-02</leafValues></_>
        <_>
          <internalNodes>
            0 -1 160 5.6860502809286118e-04</internalNodes>
          <leafValues>
            -9.7637392580509186e-02 1.6880260407924652e-01</leafValues></_>
        <_>
          <internalNodes>
            0 -1 290 -2.0564120262861252e-02</internalNodes>
          <leafValues>
            -6.5400356054306030e-01 3.1566876918077469e-02</leafValues></_>
        <_>
          <internalNodes>
            0 -1 501 -5.9187510050833225e-03</internalNodes>
          <leafValues>
            2.3962730169296265e-01 -6.4568959176540375e-02</leafValues></_>
        <_>
          <internalNodes>
            0 -1 109 3.9098170236684382e-04</internalNodes>
          <leafValues>
            9.7446441650390625e-02 -1.5103437006473541e-01</leafValues></_>
        <_>
          <internalNodes>
            0 -1 92 -3.7607061676681042e-03</internalNodes>
          <leafValues>
            -3.5761374235153198e-01 3.9278335869312286e-02</leafValues></_>
        <_>
          <internalNodes>
            0 -1 197 1.8972889520227909e-03</internalNodes>
          <leafValues>
            -1.1218357831239700e-01 1.4370748400688171e-01</leafValues></_>
        <_>
          <internalNodes>
            0 -1 4 2.8985556215047836e-02</internalNodes>
          <leafValues>
            -4.0913093835115433e-02 4.0046140551567078e-01</leafValues></_>
        <_>
          <internalNodes>
            0 -1 230 -5.3695058450102806e-03</internalNodes>
          <leafValues>
            -4.6959149837493896e-01 3.5391975194215775e-02</leafValues></_>
        <_>
          <internalNodes>
            0 -1 584 -8.0356327816843987e-04</internalNodes>
          <leafValues>
            1.9786171615123749e-01 -8.3976358175277710e-02</leafValues></_>
        <_>
          <internalNodes>
            0 -1 831 1.3450600672513247e-03</internalNodes>
          <leafValues>
            -1.0687354207038879e-01 1.5654332935810089e-01</leafValues></_>
        <_>
          <internalNodes>
            0 -1 437 7.5973877683281898e-03</internalNodes>
          <leafValues>
            2.9575850814580917e-02 -5.3999203443527222e-01</leafValues></_>
        <_>
          <internalNodes>
            0 -1 671 -7.3815294308587909e-04</internalNodes>
          <leafValues>
            1.5408915281295776e-01 -1.0573815554380417e-01</leafValues></_>
        <_>
          <internalNodes>
            0 -1 604 6.8653741618618369e-04</internalNodes>
          <leafValues>
            -9.5556661486625671e-02 1.9846877455711365e-01</leafValues></_>
        <_>
          <internalNodes>
            0 -1 521 9.3151107430458069e-03</internalNodes>
          <leafValues>
            2.8113534674048424e-02 -7.9378044605255127e-01</leafValues></_>
        <_>
          <internalNodes>
            0 -1 273 -3.4498989582061768e-02</internalNodes>
          <leafValues>
            -3.1533676385879517e-01 4.9339123070240021e-02</leafValues></_>
        <_>
          <internalNodes>
            0 -1 814 -1.6221762634813786e-03</internalNodes>
          <leafValues>
            1.8690460920333862e-01 -8.4463834762573242e-02</leafValues></_>
        <_>
          <internalNodes>
            0 -1 632 2.8430409729480743e-03</internalNodes>
